{"learner":{"attributes":{"best_iteration":"59","best_ntree_limit":"60"},"feature_names":[],"feature_types":[],"gradient_booster":{"model":{"gbtree_model_param":{"num_parallel_tree":"1","num_trees":"60","size_leaf_vector":"0"},"tree_info":[0,0,0,0,0,0,0,0,0,0,0,0,0,0,0,0,0,0,0,0,0,0,0,0,0,0,0,0,0,0,0,0,0,0,0,0,0,0,0,0,0,0,0,0,0,0,0,0,0,0,0,0,0,0,0,0,0,0,0,0],"trees":[{"base_weights":[-1.7815515E-1,1.3179033E-1,-4.4193307E-1,-1.3075805E-1,3.182215E-1,-2.8101778E-1,-4.7615853E-1,2.0712239E-1,-2.5768995E-1,3.5957074E-1,-4.7829583E-1,-4.432398E-2,-4.1005567E-1,1.7582418E-1,-4.7899118E-1,-5.0874405E-2,2.9641873E-1,-4.8073503E-1,-1.7950581E-1,3.8307545E-1,-1.4272387E-1,2.9166666E-1,-4.92635E-1,-3.8844302E-1,1.8234672E-1,-2.0941177E-1,-4.4469386E-1,3.897059E-1,-4.375E-1,-3.254717E-1,-4.8135385E-1],"categories":[],"categories_nodes":[],"categories_segments":[],"categories_sizes":[],"default_left":[1,1,1,1,1,1,1,1,1,1,1,1,1,1,1,0,0,0,0,0,0,0,0,0,0,0,0,0,0,0,0],"id":0,"left_children":[1,3,5,7,9,11,13,15,17,19,21,23,25,27,29,-1,-1,-1,-1,-1,-1,-1,-1,-1,-1,-1,-1,-1,-1,-1,-1],"loss_changes":[3.8298726E3,1.0542666E3,1.392417E2,3.8364188E2,4.1499292E2,1.3562091E2,3.862207E1,5.6297325E1,1.1329935E2,1.414231E2,7.010971E0,1.2237751E2,1.9881012E1,1.2107769E1,7.3793945E0,0E0,0E0,0E0,0E0,0E0,0E0,0E0,0E0,0E0,0E0,0E0,0E0,0E0,0E0,0E0,0E0],"parents":[2147483647,0,0,1,1,2,2,3,3,4,4,5,5,6,6,7,7,8,8,9,9,10,10,11,11,12,12,13,13,14,14],"right_children":[2,4,6,8,10,12,14,16,18,20,22,24,26,28,30,-1,-1,-1,-1,-1,-1,-1,-1,-1,-1,-1,-1,-1,-1,-1,-1],"split_conditions":[2.2056949E-1,5E-3,3.1341505E-1,1.942943E-2,2.0811988E-1,7.371269E-2,4.0066534E-1,7.5E0,7.995583E-2,5.005E2,3.1E1,5E-3,3.1516266E-1,1.4328447E-1,4.7972506E-1,-1.5262322E-2,8.892562E-2,-1.4422052E-1,-5.3851746E-2,1.14922635E-1,-4.2817164E-2,8.75E-2,-1.477905E-1,-1.16532914E-1,5.4704018E-2,-6.2823534E-2,-1.3340816E-1,1.1691178E-1,-1.3125001E-1,-9.764151E-2,-1.4440615E-1],"split_indices":[8,5,8,3,3,3,1,6,8,6,6,5,4,3,1,0,0,0,0,0,0,0,0,0,0,0,0,0,0,0,0],"split_type":[0,0,0,0,0,0,0,0,0,0,0,0,0,0,0,0,0,0,0,0,0,0,0,0,0,0,0,0,0,0,0],"sum_hessian":[4.6843E4,2.1537E4,2.5306E4,8.943E3,1.2594E4,4.44E3,2.0866E4,2.442E3,6.501E3,1.1973E4,6.21E2,1.567E3,2.873E3,9E1,2.0776E4,6.28E2,1.814E3,1.686E3,4.815E3,1.1438E4,5.35E2,1.1E1,6.1E2,6.22E2,9.45E2,4.24E2,2.449E3,6.7E1,2.3E1,3.17E2,2.0459E4],"tree_param":{"num_deleted":"0","num_feature":"9","num_nodes":"31","size_leaf_vector":"0"}},{"base_weights":[-1.24722004E-1,9.916328E-2,-3.0577037E-1,-8.817173E-2,2.3340014E-1,-1.602357E-1,-3.2829294E-1,1.5112735E-1,-1.7706937E-1,2.6482195E-1,-3.1826895E-1,-2.9479747E-3,-3.3931333E-1,-2.2671306E-1,-3.362168E-1,3.1980443E-1,4.6451185E-2,-2.2784469E-1,8.760938E-2,3.610049E-1,1.9374199E-1,2.5489935E-1,-3.4701398E-1,3.8120067E-1,-1.3630748E-1,1.2894239E-1,-3.4083912E-1,9.554956E-3,-2.8083155E-1,2.6855403E-1,-3.3686998E-1],"categories":[],"categories_nodes":[],"categories_segments":[],"categories_sizes":[],"default_left":[1,1,1,1,1,1,1,1,1,1,1,1,1,1,1,0,0,0,0,0,0,0,0,0,0,0,0,0,0,0,0],"id":1,"left_children":[1,3,5,7,9,11,13,15,17,19,21,23,25,27,29,-1,-1,-1,-1,-1,-1,-1,-1,-1,-1,-1,-1,-1,-1,-1,-1],"loss_changes":[1.8988079E3,5.2673E2,8.484277E1,1.8603894E2,2.1159924E2,9.7822E1,1.7976318E1,4.181332E1,8.570796E1,7.885956E1,1.09294815E1,9.482723E1,1.2042084E0,2.079348E1,8.307861E0,0E0,0E0,0E0,0E0,0E0,0E0,0E0,0E0,0E0,0E0,0E0,0E0,0E0,0E0,0E0,0E0],"parents":[2147483647,0,0,1,1,2,2,3,3,4,4,5,5,6,6,7,7,8,8,9,9,10,10,11,11,12,12,13,13,14,14],"right_children":[2,4,6,8,10,12,14,16,18,20,22,24,26,28,30,-1,-1,-1,-1,-1,-1,-1,-1,-1,-1,-1,-1,-1,-1,-1,-1],"split_conditions":[2.0696178E-1,5E-3,6.868051E-2,1.875053E-2,1.8811741E-1,3.685566E-1,2.589782E-1,5.0693816E-3,1.2321065E-1,2.4287876E-2,3.35E1,9.8024845E-1,4.4494763E-1,3.1581917E-1,2.1311522E-1,9.5941335E-2,1.3935356E-2,-6.835341E-2,2.6282815E-2,1.0830147E-1,5.81226E-2,7.646981E-2,-1.041042E-1,1.14360206E-1,-4.0892243E-2,3.8682718E-2,-1.0225174E-1,2.866487E-3,-8.424947E-2,8.056621E-2,-1.01061E-1],"split_indices":[8,5,3,3,3,8,8,3,3,3,6,2,1,4,0,0,0,0,0,0,0,0,0,0,0,0,0,0,0,0,0],"split_type":[0,0,0,0,0,0,0,0,0,0,0,0,0,0,0,0,0,0,0,0,0,0,0,0,0,0,0,0,0,0,0],"sum_hessian":[4.6843E4,2.0944E4,2.5899E4,8.743E3,1.2201E4,3.472E3,2.2427E4,2.368E3,6.375E3,1.1544E4,6.57E2,1.849E3,1.623E3,1.625E3,2.0802E4,9.06E2,1.462E3,5.349E3,1.026E3,4.904E3,6.64E3,3.1E1,6.26E2,4.76E2,1.373E3,5E0,1.618E3,3.03E2,1.322E3,2.2E1,2.078E4],"tree_param":{"num_deleted":"0","num_feature":"9","num_nodes":"31","size_leaf_vector":"0"}},{"base_weights":[-8.730295E-2,7.057342E-2,-2.1337157E-1,-6.1074596E-2,1.652049E-1,-1.2749614E-1,-2.3652335E-1,1.0296412E-1,-1.2683874E-1,1.8879025E-1,-2.024359E-1,2.4556753E-1,-1.6330688E-1,-2.0753524E-1,-2.4290259E-1,-3.530704E-2,2.9867014E-1,-3.0514137E-3,-1.9746624E-1,2.0545477E-1,-5.8037277E-2,2.4468903E-1,-2.4873376E-1,3.7933618E-1,-2.1935312E-1,-6.918965E-2,-2.2788326E-1,-1.5144609E-1,-2.2882824E-1,-2.4355784E-1,-1.8416036E-2],"categories":[],"categories_nodes":[],"categories_segments":[],"categories_sizes":[],"default_left":[1,1,1,1,1,1,1,1,1,1,1,1,1,1,1,0,0,0,0,0,0,0,0,0,0,0,0,0,0,0,0],"id":2,"left_children":[1,3,5,7,9,11,13,15,17,19,21,23,25,27,29,-1,-1,-1,-1,-1,-1,-1,-1,-1,-1,-1,-1,-1,-1,-1,-1],"loss_changes":[9.323632E2,2.59125E2,5.1753784E1,9.3856705E1,1.0496521E2,7.395924E1,3.743042E0,6.739118E1,5.429212E1,4.6787933E1,1.5172539E1,3.0246235E1,3.0670792E1,4.392639E0,2.4679565E0,0E0,0E0,0E0,0E0,0E0,0E0,0E0,0E0,0E0,0E0,0E0,0E0,0E0,0E0,0E0,0E0],"parents":[2147483647,0,0,1,1,2,2,3,3,4,4,5,5,6,6,7,7,8,8,9,9,10,10,11,11,12,12,13,13,14,14],"right_children":[2,4,6,8,10,12,14,16,18,20,22,24,26,28,30,-1,-1,-1,-1,-1,-1,-1,-1,-1,-1,-1,-1,-1,-1,-1,-1],"split_conditions":[2.0355383E-1,5E-3,8.878701E-2,1.9830486E-2,1.7054254E-1,8.199836E-1,3.2334942E-1,5.6535948E-2,3.66158E-1,3.985E2,3.35E1,4.7371408E-1,3.1674686E-1,3.8552395E-1,3.640502E-1,-1.0592112E-2,8.960105E-2,-9.1542414E-4,-5.9239876E-2,6.1636433E-2,-1.7411184E-2,7.340671E-2,-7.462013E-2,1.1380086E-1,-6.580594E-2,-2.0756897E-2,-6.8364985E-2,-4.5433827E-2,-6.864847E-2,-7.306735E-2,-5.524811E-3],"split_indices":[8,5,3,3,3,2,4,8,7,6,6,8,8,8,3,0,0,0,0,0,0,0,0,0,0,0,0,0,0,0,0],"split_type":[0,0,0,0,0,0,0,0,0,0,0,0,0,0,0,0,0,0,0,0,0,0,0,0,0,0,0,0,0,0,0],"sum_hessian":[4.6843E4,2.0798E4,2.6045E4,8.698E3,1.21E4,5.532E3,2.0513E4,2.489E3,6.209E3,1.1371E4,7.29E2,4.84E2,5.048E3,3.706E3,1.6807E4,1.459E3,1.03E3,2.256E3,3.953E3,1.0652E4,7.19E2,6.8E1,6.61E2,3.76E2,1.08E2,2.055E3,2.993E3,1.022E3,2.684E3,1.6758E4,4.9E1],"tree_param":{"num_deleted":"0","num_feature":"9","num_nodes":"31","size_leaf_vector":"0"}},{"base_weights":[-6.111574E-2,5.281221E-2,-1.4792855E-1,2.1942502E-1,6.155603E-3,-7.96144E-2,-1.6549921E-1,-6.968257E-3,2.2626792E-1,-3.3223477E-1,5.8370862E-2,1.12717226E-1,-1.2305414E-1,-1.2922867E-1,-1.7008364E-1,-2.9476056E-1,2.1869284E-1,2.2960488E-1,7.1069404E-2,-2.8550094E-1,-5.83396E-1,2.1621025E-1,4.7962754E-3,2.5037956E-1,-1.6752285E-1,-6.1685313E-2,-1.8464448E-1,-3.7495032E-2,-1.5630339E-1,-5.482639E-2,-1.7180707E-1],"categories":[],"categories_nodes":[],"categories_segments":[],"categories_sizes":[],"default_left":[1,1,1,1,1,1,1,1,1,1,1,1,1,1,1,0,0,0,0,0,0,0,0,0,0,0,0,0,0,0,0],"id":3,"left_children":[1,3,5,7,9,11,13,15,17,19,21,23,25,27,29,-1,-1,-1,-1,-1,-1,-1,-1,-1,-1,-1,-1,-1,-1,-1,-1],"loss_changes":[4.6331396E2,1.574838E2,3.1898682E1,6.8675537E0,2.7968658E2,4.547253E1,3.4941406E0,8.572063E0,2.2116547E0,2.4670471E1,1.1595856E2,3.8736183E1,1.6766815E1,5.8978043E0,3.7190552E0,0E0,0E0,0E0,0E0,0E0,0E0,0E0,0E0,0E0,0E0,0E0,0E0,0E0,0E0,0E0,0E0],"parents":[2147483647,0,0,1,1,2,2,3,3,4,4,5,5,6,6,7,7,8,8,9,9,10,10,11,11,12,12,13,13,14,14],"right_children":[2,4,6,8,10,12,14,16,18,20,22,24,26,28,30,-1,-1,-1,-1,-1,-1,-1,-1,-1,-1,-1,-1,-1,-1,-1,-1],"split_conditions":[1.916947E-1,5.0446633E-3,8.577672E-2,6.5E0,6.30389E-2,9.454235E-1,3.555505E-1,4.2819977E-2,2.3070749E-2,5E-3,3.3496007E-2,4.5430243E-1,3.4968054E-1,2.8929555E-1,6.996895E-1,-8.842817E-2,6.560785E-2,6.888147E-2,2.1320822E-2,-8.565029E-2,-1.7501882E-1,6.486308E-2,1.4388827E-3,7.511387E-2,-5.0256856E-2,-1.8505594E-2,-5.5393346E-2,-1.124851E-2,-4.689102E-2,-1.6447918E-2,-5.1542122E-2],"split_indices":[8,3,3,6,8,2,7,7,8,5,3,8,4,8,2,0,0,0,0,0,0,0,0,0,0,0,0,0,0,0,0],"split_type":[0,0,0,0,0,0,0,0,0,0,0,0,0,0,0,0,0,0,0,0,0,0,0,0,0,0,0,0,0,0,0],"sum_hessian":[4.6843E4,2.0258E4,2.6585E4,4.431E3,1.5827E4,5.44E3,2.1145E4,1.3E2,4.301E3,2.115E3,1.3712E4,1.002E3,4.438E3,2.376E3,1.8769E4,5.7E1,7.3E1,4.21E3,9.1E1,1.785E3,3.3E2,3.474E3,1.0238E4,6.72E2,3.3E2,2.224E3,2.214E3,5.42E2,1.834E3,2.77E2,1.8492E4],"tree_param":{"num_deleted":"0","num_feature":"9","num_nodes":"31","size_leaf_vector":"0"}},{"base_weights":[-4.2787466E-2,2.9853445E-2,-1.1077642E-1,-1.6042268E-1,5.4313187E-2,-1.8291159E-2,-1.14729315E-1,-3.147786E-1,-1.0061791E-1,8.201337E-2,-1.0233577E-1,1.3415878E-1,-1.2707734E-1,-2.0733243E-2,-1.174458E-1,-2.0640182E-1,-3.7858078E-1,1.0400541E-2,-1.9788145E-1,1.3683878E-1,3.6995802E-2,6.2922634E-2,-1.6202424E-1,2.6318973E-1,-1.2864974E-1,-1.3800526E-1,6.7152023E-1,-1.4010789E-1,2.7749506E-1,-1.3557187E-1,-1.10213265E-1],"categories":[],"categories_nodes":[],"categories_segments":[],"categories_sizes":[],"default_left":[1,1,1,1,1,1,1,1,1,1,1,1,1,1,1,0,0,0,0,0,0,0,0,0,0,0,0,0,0,0,0],"id":4,"left_children":[1,3,5,7,9,11,13,15,17,19,21,23,25,27,29,-1,-1,-1,-1,-1,-1,-1,-1,-1,-1,-1,-1,-1,-1,-1,-1],"loss_changes":[2.313555E2,1.0541487E2,8.843933E0,2.378489E1,8.709189E1,1.6485403E1,5.922699E0,4.900421E0,2.009722E1,4.208603E1,2.976008E1,1.4072781E1,5.1543427E0,2.3286264E1,2.9417114E0,0E0,0E0,0E0,0E0,0E0,0E0,0E0,0E0,0E0,0E0,0E0,0E0,0E0,0E0,0E0,0E0],"parents":[2147483647,0,0,1,1,2,2,3,3,4,4,5,5,6,6,7,7,8,8,9,9,10,10,11,11,12,12,13,13,14,14],"right_children":[2,4,6,8,10,12,14,16,18,20,22,24,26,28,30,-1,-1,-1,-1,-1,-1,-1,-1,-1,-1,-1,-1,-1,-1,-1,-1],"split_conditions":[2.4418703E-1,8.5E0,7.7393794E-1,9.315014E-3,3.9282694E-1,1.1871339E-1,2.8565388E-2,8.1746034E-2,3.6051053E-1,5.027785E-1,3.8150385E-2,5.3549504E-1,3.6272758E-1,1.5E-2,5E-3,-6.192055E-2,-1.1357424E-1,3.1201625E-3,-5.9364434E-2,4.1051634E-2,1.1098741E-2,1.8876791E-2,-4.8607275E-2,7.8956924E-2,-3.8594924E-2,-4.140158E-2,2.0145608E-1,-4.203237E-2,8.324852E-2,-4.067156E-2,-3.306398E-2],"split_indices":[8,6,2,7,4,3,3,8,7,7,3,8,3,5,5,0,0,0,0,0,0,0,0,0,0,0,0,0,0,0,0],"split_type":[0,0,0,0,0,0,0,0,0,0,0,0,0,0,0,0,0,0,0,0,0,0,0,0,0,0,0,0,0,0,0],"sum_hessian":[4.6843E4,2.2647E4,2.4196E4,2.579E3,2.0068E4,9.92E2,2.3204E4,7.19E2,1.86E3,1.7053E4,3.015E3,4.13E2,5.79E2,6.52E2,2.2552E4,2.68E2,4.51E2,8.69E2,9.91E2,7.688E3,9.365E3,8E2,2.215E3,2.77E2,1.36E2,5.72E2,7E0,4.66E2,1.86E2,6.427E3,1.6125E4],"tree_param":{"num_deleted":"0","num_feature":"9","num_nodes":"31","size_leaf_vector":"0"}},{"base_weights":[-2.995211E-2,1.2617287E-1,-4.7021333E-2,-2.9549303E-2,1.3213246E-1,-2.6059666E-1,-3.682493E-2,-1.8993676E-1,7.81816E-2,1.4335394E-1,8.7562144E-2,-2.2177938E-1,-4.9354085E-1,8.7618254E-2,-5.9579697E-2,-7.873595E-2,-4.0891507E-1,3.260983E-1,-1.2761255E-1,2.208642E-1,1.24952E-1,-2.657997E-2,1.1645363E-1,-3.6924848E-1,-1.5684366E-1,1.6420783E-1,-5.661053E-1,1.1184795E-1,-1.0523121E-1,9.276182E-2,-6.899594E-2],"categories":[],"categories_nodes":[],"categories_segments":[],"categories_sizes":[],"default_left":[1,1,1,1,1,1,1,1,1,1,1,1,1,1,1,0,0,0,0,0,0,0,0,0,0,0,0,0,0,0,0],"id":5,"left_children":[1,3,5,7,9,11,13,15,17,19,21,23,25,27,29,-1,-1,-1,-1,-1,-1,-1,-1,-1,-1,-1,-1,-1,-1,-1,-1],"loss_changes":[1.2484199E2,4.288666E0,9.19503E1,2.9695048E0,2.2116013E0,1.7287842E1,1.141359E2,1.6479926E0,5.296654E0,5.0373306E0,2.961164E0,1.575209E1,1.31707535E1,2.9127262E1,4.888646E1,0E0,0E0,0E0,0E0,0E0,0E0,0E0,0E0,0E0,0E0,0E0,0E0,0E0,0E0,0E0,0E0],"parents":[2147483647,0,0,1,1,2,2,3,3,4,4,5,5,6,6,7,7,8,8,9,9,10,10,11,11,12,12,13,13,14,14],"right_children":[2,4,6,8,10,12,14,16,18,20,22,24,26,28,30,-1,-1,-1,-1,-1,-1,-1,-1,-1,-1,-1,-1,-1,-1,-1,-1],"split_conditions":[5.9457617E-3,6.5E0,5.9868228E-2,3.712502E-2,1.128225E-2,5E-3,4.5543216E-2,3.39515E-1,2.8089024E-3,5E-3,5E-3,1.9426936E-2,9.661396E-3,3.5004425E-1,7.7393794E-1,-2.3620786E-2,-1.22674525E-1,9.782949E-2,-3.8283765E-2,6.6259265E-2,3.7485603E-2,-7.973991E-3,3.4936093E-2,-1.1077455E-1,-4.7053102E-2,4.9262352E-2,-1.698316E-1,3.3554386E-2,-3.1569365E-2,2.7828548E-2,-2.0698782E-2],"split_indices":[3,6,8,7,8,5,3,4,3,5,5,3,3,8,2,0,0,0,0,0,0,0,0,0,0,0,0,0,0,0,0],"split_type":[0,0,0,0,0,0,0,0,0,0,0,0,0,0,0,0,0,0,0,0,0,0,0,0,0,0,0,0,0,0,0],"sum_hessian":[4.6843E4,4.616E3,4.2227E4,1.7E2,4.446E3,1.923E3,4.0304E4,6.8E1,1.02E2,3.55E3,8.96E2,1.65E3,2.73E2,6.23E3,3.4074E4,4.6E1,2.2E1,4.6E1,5.6E1,6.79E2,2.871E3,1.81E2,7.15E2,5.03E2,1.147E3,2.7E1,2.46E2,5.535E3,6.95E2,1.983E3,3.2091E4],"tree_param":{"num_deleted":"0","num_feature":"9","num_nodes":"31","size_leaf_vector":"0"}},{"base_weights":[-2.0971283E-2,2.7852304E-2,-5.5288486E-2,1.3163687E-1,-1.3151017E-3,-1.9365035E-2,-6.8750285E-2,2.5051823E-2,1.8241651E-1,1.1759495E-2,-4.99569E-1,4.8245843E-2,-6.0510285E-2,-1.9488605E-2,-7.1889155E-2,9.2797846E-2,-2.1896338E-1,1.9716986E-1,-2.6569462E-1,-1.737687E-1,2.9894723E-2,7.134516E-2,-5.6394076E-1,-4.964504E-2,1.1575018E-1,2.0094468E-1,-6.236032E-2,-1.0787423E-1,7.207598E-2,-1.251886E-1,-6.8276115E-2],"categories":[],"categories_nodes":[],"categories_segments":[],"categories_sizes":[],"default_left":[1,1,1,1,1,1,1,1,1,1,1,1,1,1,1,0,0,0,0,0,0,0,0,0,0,0,0,0,0,0,0],"id":6,"left_children":[1,3,5,7,9,11,13,15,17,19,21,23,25,27,29,-1,-1,-1,-1,-1,-1,-1,-1,-1,-1,-1,-1,-1,-1,-1,-1],"loss_changes":[7.8488144E1,5.8532696E1,1.3301865E1,2.2954613E1,9.834178E1,2.086692E1,3.092659E0,2.2667871E1,1.9046188E1,4.94984E1,1.4226021E1,1.8759417E1,2.2680244E0,9.719366E0,3.613945E0,0E0,0E0,0E0,0E0,0E0,0E0,0E0,0E0,0E0,0E0,0E0,0E0,0E0,0E0,0E0,0E0],"parents":[2147483647,0,0,1,1,2,2,3,3,4,4,5,5,6,6,7,7,8,8,9,9,10,10,11,11,12,12,13,13,14,14],"right_children":[2,4,6,8,10,12,14,16,18,20,22,24,26,28,30,-1,-1,-1,-1,-1,-1,-1,-1,-1,-1,-1,-1,-1,-1,-1,-1],"split_conditions":[1.7807977E-1,9.6717465E-1,3.3225158E-1,8.689502E-2,2.39E2,3.689013E-1,5.212582E-2,2.3536297E-2,1.5427229E-1,5.0382483E-1,1.4011512E-2,5E-3,2.5482905E-1,5E-3,2.175097E-1,2.7839355E-2,-6.568902E-2,5.915096E-2,-7.970839E-2,-5.2130613E-2,8.9684175E-3,2.1403547E-2,-1.6918224E-1,-1.4893512E-2,3.4725055E-2,6.0283404E-2,-1.8708097E-2,-3.236227E-2,2.1622794E-2,-3.755658E-2,-2.0482834E-2],"split_indices":[8,2,4,8,6,8,3,3,3,0,3,5,0,5,8,0,0,0,0,0,0,0,0,0,0,0,0,0,0,0,0],"split_type":[0,0,0,0,0,0,0,0,0,0,0,0,0,0,0,0,0,0,0,0,0,0,0,0,0,0,0,0,0,0,0],"sum_hessian":[4.6843E4,1.9335E4,2.7508E4,4.241E3,1.5094E4,7.499E3,2.0009E4,1.369E3,2.872E3,1.4709E4,3.85E2,2.837E3,4.662E3,1.199E3,1.881E4,1.072E3,2.97E2,2.781E3,9.1E1,1.309E3,1.34E4,3.9E1,3.46E2,1.158E3,1.679E3,3.2E1,4.63E3,6.1E2,5.89E2,1.192E3,1.7618E4],"tree_param":{"num_deleted":"0","num_feature":"9","num_nodes":"31","size_leaf_vector":"0"}},{"base_weights":[-1.4685377E-2,7.684464E-2,-2.4697276E-2,5.2108993E-3,8.359778E-2,-1.7642727E-1,-1.6213043E-2,5.081578E-2,-3.2933345E-1,1.23707816E-1,7.3147334E-2,-1.4475344E-1,-3.4902495E-1,4.0689744E-2,-3.7085984E-2,-3.7721473E-1,6.8342656E-2,-6.203963E-1,-2.6450816E-1,1.5322174E-1,-1.3095237E-1,7.109272E-2,3.8081697E-1,-1.7602612E-1,-6.369153E-2,1.1015257E-1,-3.9941657E-1,-1.649737E-1,5.9965234E-2,1.8373549E-2,-4.7142796E-2],"categories":[],"categories_nodes":[],"categories_segments":[],"categories_sizes":[],"default_left":[1,1,1,1,1,1,1,1,1,1,1,1,1,1,1,0,0,0,0,0,0,0,0,0,0,0,0,0,0,0,0],"id":7,"left_children":[1,3,5,7,9,11,13,15,17,19,21,23,25,27,29,-1,-1,-1,-1,-1,-1,-1,-1,-1,-1,-1,-1,-1,-1,-1,-1],"loss_changes":[4.2929237E1,2.2340183E0,5.4355206E1,6.1042204E0,1.7602558E0,1.2173309E1,4.7499958E1,2.6664972E0,7.4157524E-1,6.5665197E0,2.0912437E0,4.7825203E0,8.049988E0,4.2558342E1,1.6319958E1,0E0,0E0,0E0,0E0,0E0,0E0,0E0,0E0,0E0,0E0,0E0,0E0,0E0,0E0,0E0,0E0],"parents":[2147483647,0,0,1,1,2,2,3,3,4,4,5,5,6,6,7,7,8,8,9,9,10,10,11,11,12,12,13,13,14,14],"right_children":[2,4,6,8,10,12,14,16,18,20,22,24,26,28,30,-1,-1,-1,-1,-1,-1,-1,-1,-1,-1,-1,-1,-1,-1,-1,-1],"split_conditions":[6.010662E-3,3.6400497E-2,6.647765E-2,3.1643718E-1,5E-3,5E-3,1.5744281E-1,7.5635594E-1,9.375E-1,1.7965686E-2,1.4005396E-1,4.6451915E-2,9.661396E-3,7.5E0,6.972036E-2,-1.13164425E-1,2.0502798E-2,-1.861189E-1,-7.935245E-2,4.5966525E-2,-3.9285712E-2,2.1327816E-2,1.14245094E-1,-5.2807838E-2,-1.910746E-2,3.3045772E-2,-1.19824976E-1,-4.9492113E-2,1.798957E-2,5.512065E-3,-1.4142839E-2],"split_indices":[3,7,8,4,5,5,8,0,0,8,8,8,3,6,3,0,0,0,0,0,0,0,0,0,0,0,0,0,0,0,0],"split_type":[0,0,0,0,0,0,0,0,0,0,0,0,0,0,0,0,0,0,0,0,0,0,0,0,0,0,0,0,0,0,0],"sum_hessian":[4.6843E4,4.618E3,4.2225E4,3.98E2,4.22E3,2.235E3,3.999E4,3.51E2,4.7E1,8.7E2,3.35E3,1.89E3,3.45E2,1.0732E4,2.9258E4,1.3E1,3.38E2,7E0,4E1,7.8E2,9E1,3.329E3,2.1E1,1.363E3,5.27E2,3.4E1,3.11E2,9.19E2,9.813E3,4.491E3,2.4767E4],"tree_param":{"num_deleted":"0","num_feature":"9","num_nodes":"31","size_leaf_vector":"0"}},{"base_weights":[-1.0288616E-2,1.1600881E-2,-3.1001769E-2,9.523538E-2,-5.316458E-3,-4.6744797E-2,-2.4794858E-2,1.1332799E-1,-1.7602292E-1,7.303457E-3,-2.7266327E-1,-8.448758E-2,-3.3184838E-2,-2.5406329E-2,5.9709114E-1,2.5360208E-2,1.54674E-1,5.6807924E-2,-2.0955499E-1,-4.7780894E-2,3.5927646E-2,2.8338281E-2,-3.0167925E-1,-1.4520288E-1,-6.0857728E-2,-5.5954874E-2,-3.0351577E-2,4.374652E-2,-2.9728148E-2,1.6819188E-1,6.769844E-1],"categories":[],"categories_nodes":[],"categories_segments":[],"categories_sizes":[],"default_left":[1,1,1,1,1,1,1,1,1,1,1,1,1,1,1,0,0,0,0,0,0,0,0,0,0,0,0,0,0,0,0],"id":8,"left_children":[1,3,5,7,9,11,13,15,17,19,21,23,25,27,29,-1,-1,-1,-1,-1,-1,-1,-1,-1,-1,-1,-1,-1,-1,-1,-1],"loss_changes":[2.1239452E1,3.222566E1,2.3507557E0,1.8826523E1,6.392041E1,3.4799309E0,6.580453E0,1.30642395E1,1.8856559E0,2.8528183E1,7.46727E0,2.5707426E0,3.2138538E-1,5.1564417E0,4.686613E-1,0E0,0E0,0E0,0E0,0E0,0E0,0E0,0E0,0E0,0E0,0E0,0E0,0E0,0E0,0E0,0E0],"parents":[2147483647,0,0,1,1,2,2,3,3,4,4,5,5,6,6,7,7,8,8,9,9,10,10,11,11,12,12,13,13,14,14],"right_children":[2,4,6,8,10,12,14,16,18,20,22,24,26,28,30,-1,-1,-1,-1,-1,-1,-1,-1,-1,-1,-1,-1,-1,-1,-1,-1],"split_conditions":[2.4679622E-1,9.188503E-1,5E-3,1.3584486E-1,2.315E2,7.938385E-2,3.632783E-1,9.7618654E-2,3.2671368E-1,1.45E1,5.9948877E-2,3.16509E-1,3.134908E-1,3.2271498E-1,7.12898E-1,7.6080626E-3,4.64022E-2,1.7042378E-2,-6.28665E-2,-1.4334269E-2,1.0778294E-2,8.501485E-3,-9.050378E-2,-4.3560863E-2,-1.825732E-2,-1.6786464E-2,-9.105474E-3,1.31239565E-2,-8.918445E-3,5.0457567E-2,2.0309533E-1],"split_indices":[8,2,5,3,6,3,3,8,4,6,8,8,4,7,7,0,0,0,0,0,0,0,0,0,0,0,0,0,0,0,0],"split_type":[0,0,0,0,0,0,0,0,0,0,0,0,0,0,0,0,0,0,0,0,0,0,0,0,0,0,0,0,0,0,0],"sum_hessian":[4.6843E4,2.2775E4,2.4068E4,3.831E3,1.8944E4,6.804E3,1.7264E4,3.592E3,2.39E2,1.8091E4,8.53E2,1.797E3,5.007E3,1.7248E4,1.6E1,1.149E3,2.443E3,3E1,2.09E2,6.186E3,1.1905E4,7.5E1,7.78E2,5.02E2,1.295E3,5.52E2,4.455E3,1.014E3,1.6234E4,3E0,1.3E1],"tree_param":{"num_deleted":"0","num_feature":"9","num_nodes":"31","size_leaf_vector":"0"}},{"base_weights":[-7.2000567E-3,2.9146045E-2,-1.6854709E-2,4.748575E-3,6.5722436E-2,-1.4201826E-1,-9.101303E-3,4.765784E-2,-1.3727234E-1,-1.4352404E-1,7.720496E-2,-1.2768672E-1,-3.2395485E-1,4.061248E-2,-1.8997915E-2,4.8959527E-2,-3.2272246E-1,-2.2356011E-1,-7.922898E-2,-2.412438E-1,-3.436835E-2,8.909212E-2,-6.570999E-2,7.397148E-2,-1.3989584E-1,-4.6417058E-1,-2.4379764E-1,-4.3418948E-2,8.798697E-2,6.3420553E-3,-2.9880108E-2],"categories":[],"categories_nodes":[],"categories_segments":[],"categories_sizes":[],"default_left":[1,1,1,1,1,1,1,1,1,1,1,1,1,1,1,0,0,0,0,0,0,0,0,0,0,0,0,0,0,0,0],"id":9,"left_children":[1,3,5,7,9,11,13,15,17,19,21,23,25,27,29,-1,-1,-1,-1,-1,-1,-1,-1,-1,-1,-1,-1,-1,-1,-1,-1],"loss_changes":[1.643847E1,8.773484E0,3.5917744E1,3.5955128E1,9.463213E0,5.5880775E0,1.714936E1,2.200285E0,6.838831E0,2.1783757E0,6.342577E0,4.941868E0,1.6514072E0,2.3041553E1,8.016095E0,0E0,0E0,0E0,0E0,0E0,0E0,0E0,0E0,0E0,0E0,0E0,0E0,0E0,0E0,0E0,0E0],"parents":[2147483647,0,0,1,1,2,2,3,3,4,4,5,5,6,6,7,7,8,8,9,9,10,10,11,11,12,12,13,13,14,14],"right_children":[2,4,6,8,10,12,14,16,18,20,22,24,26,28,30,-1,-1,-1,-1,-1,-1,-1,-1,-1,-1,-1,-1,-1,-1,-1,-1],"split_conditions":[2.9750021E-2,5.7897605E-2,9.695157E-2,6.4908466E-3,9.308994E-3,2.28E2,1.5156285E-1,2.6223775E-2,1.9426936E-2,6.5E0,3.1893936E-1,3.0980638E-1,1.55E-1,2.05E1,3.3558965E-1,1.46878585E-2,-9.681674E-2,-6.706803E-2,-2.3768695E-2,-7.2373144E-2,-1.03105055E-2,2.6727637E-2,-1.9713E-2,2.2191444E-2,-4.1968755E-2,-1.3925117E-1,-7.3139295E-2,-1.3025685E-2,2.6396092E-2,1.9026167E-3,-8.964033E-3],"split_indices":[3,8,8,3,7,6,8,8,3,6,8,4,5,6,4,0,0,0,0,0,0,0,0,0,0,0,0,0,0,0,0],"split_type":[0,0,0,0,0,0,0,0,0,0,0,0,0,0,0,0,0,0,0,0,0,0,0,0,0,0,0,0,0,0,0],"sum_hessian":[4.6843E4,9.831E3,3.7012E4,5.898E3,3.933E3,2.158E3,3.4854E4,4.53E3,1.368E3,2.04E2,3.729E3,2.002E3,1.56E2,5.786E3,2.9068E4,4.515E3,1.5E1,5.49E2,8.19E2,1.07E2,9.7E1,3.443E3,2.86E2,1.14E2,1.888E3,5.5E1,1.01E2,2.086E3,3.7E3,8.733E3,2.0335E4],"tree_param":{"num_deleted":"0","num_feature":"9","num_nodes":"31","size_leaf_vector":"0"}},{"base_weights":[-5.050166E-3,2.6030106E-2,-1.3919141E-2,-8.967777E-2,4.2019714E-2,-4.9444176E-2,-2.3962343E-3,-1.2023266E-1,-1.1187436E-2,6.909918E-3,8.286314E-2,-1.5993327E-1,-1.0185953E-2,2.316421E-2,-2.429862E-2,-5.2638143E-2,-1.47377E-1,-4.380088E-2,2.6203E-1,-1.0682295E-1,4.4408824E-2,1.1600376E-1,-1.92721E-3,-2.1720588E-1,-3.3322144E-2,1.043152E-1,-1.713439E-2,4.9481526E-2,-3.024168E-2,-3.6865532E-1,-2.3271687E-2],"categories":[],"categories_nodes":[],"categories_segments":[],"categories_sizes":[],"default_left":[1,1,1,1,1,1,1,1,1,1,1,1,1,1,1,0,0,0,0,0,0,0,0,0,0,0,0,0,0,0,0],"id":10,"left_children":[1,3,5,7,9,11,13,15,17,19,21,23,25,27,29,-1,-1,-1,-1,-1,-1,-1,-1,-1,-1,-1,-1,-1,-1,-1,-1],"loss_changes":[1.291292E1,1.9245052E1,1.4918703E1,3.0276613E0,1.3103359E1,3.8715843E1,1.5407214E1,1.6600838E0,3.174726E0,2.0966522E1,1.1869686E1,1.6960926E1,5.2424316E0,1.7851341E1,5.232582E0,0E0,0E0,0E0,0E0,0E0,0E0,0E0,0E0,0E0,0E0,0E0,0E0,0E0,0E0,0E0,0E0],"parents":[2147483647,0,0,1,1,2,2,3,3,4,4,5,5,6,6,7,7,8,8,9,9,10,10,11,11,12,12,13,13,14,14],"right_children":[2,4,6,8,10,12,14,16,18,20,22,24,26,28,30,-1,-1,-1,-1,-1,-1,-1,-1,-1,-1,-1,-1,-1,-1,-1,-1],"split_conditions":[3.6059648E-1,6.5E0,2.25E1,3.6973506E-2,8.6093533E-1,6.44958E-1,1.1539471E-1,8.48366E-2,1.5843594E-1,1.45E1,2.794818E-1,2.5680506E-1,1.0145573E-2,8.572751E-1,1.0074697E-1,-1.5791444E-2,-4.42131E-2,-1.3140264E-2,7.8609005E-2,-3.2046888E-2,1.3322648E-2,3.480113E-2,-5.78163E-4,-6.5161765E-2,-9.996643E-3,3.1294562E-2,-5.1403176E-3,1.4844459E-2,-9.072504E-3,-1.10596605E-1,-6.9815065E-3],"split_indices":[7,6,6,7,0,0,3,8,3,6,8,8,8,1,8,0,0,0,0,0,0,0,0,0,0,0,0,0,0,0,0],"split_type":[0,0,0,0,0,0,0,0,0,0,0,0,0,0,0,0,0,0,0,0,0,0,0,0,0,0,0,0,0,0,0],"sum_hessian":[4.6843E4,1.0399E4,3.6444E4,1.262E3,9.137E3,8.925E3,2.7519E4,9.08E2,3.54E2,4.914E3,4.223E3,2.339E3,6.586E3,1.2699E4,1.482E4,2.61E2,6.47E2,3.17E2,3.7E1,1.218E3,3.696E3,3.036E3,1.187E3,1.61E3,7.29E2,3.76E2,6.21E3,8.507E3,4.192E3,4.3E1,1.4777E4],"tree_param":{"num_deleted":"0","num_feature":"9","num_nodes":"31","size_leaf_vector":"0"}},{"base_weights":[-3.5381054E-3,5.409795E-3,-2.4911446E-2,1.4473939E-2,-2.4540866E-2,-4.3587677E-2,-1.2442606E-2,6.732057E-2,6.365594E-3,-5.4719567E-2,-1.668611E-2,-2.560986E-2,-1.0136282E-1,-6.951651E-2,-1.0387417E-2,-6.4536184E-2,8.131017E-2,1.3478314E-2,-1.1070274E-1,-3.5470665E-2,-7.19872E-2,-1.0993556E-1,-1.4021722E-2,-1.9339579E-3,-6.743705E-2,-3.3473802E-1,-9.16664E-2,3.678318E-2,-8.248178E-2,-1.5515751E-2,-4.1536316E-3],"categories":[],"categories_nodes":[],"categories_segments":[],"categories_sizes":[],"default_left":[1,1,1,1,1,1,1,1,1,1,1,1,1,1,1,0,0,0,0,0,0,0,0,0,0,0,0,0,0,0,0],"id":11,"left_children":[1,3,5,7,9,11,13,15,17,19,21,23,25,27,29,-1,-1,-1,-1,-1,-1,-1,-1,-1,-1,-1,-1,-1,-1,-1,-1],"loss_changes":[8.958888E0,8.9648E0,3.2186651E0,1.0862015E1,1.8177056E0,5.745408E0,9.7179246E-1,6.225313E0,1.830284E1,5.239415E-1,1.511287E0,4.1809015E0,2.940507E0,3.999567E-1,2.558149E-1,0E0,0E0,0E0,0E0,0E0,0E0,0E0,0E0,0E0,0E0,0E0,0E0,0E0,0E0,0E0,0E0],"parents":[2147483647,0,0,1,1,2,2,3,3,4,4,5,5,6,6,7,7,8,8,9,9,10,10,11,11,12,12,13,13,14,14],"right_children":[2,4,6,8,10,12,14,16,18,20,22,24,26,28,30,-1,-1,-1,-1,-1,-1,-1,-1,-1,-1,-1,-1,-1,-1,-1,-1],"split_conditions":[3.8223672E-1,5.2309006E-1,3.176219E-1,8.841902E-1,8.2373455E-2,4.205507E-1,7.7391607E-1,2.4999999E-2,2.565E2,5E-3,7.601831E-1,7.1788645E-1,1.0572347E-1,1.08819276E-1,8.676671E-1,-1.9360855E-2,2.4393052E-2,4.0434944E-3,-3.321082E-2,-1.06412E-2,-2.159616E-2,-3.298067E-2,-4.206517E-3,-5.801874E-4,-2.0231117E-2,-1.0042141E-1,-2.7499922E-2,1.1034954E-2,-2.4744535E-2,-4.6547255E-3,-1.2460896E-3],"split_indices":[4,8,8,2,3,4,2,5,6,5,2,7,7,3,1,0,0,0,0,0,0,0,0,0,0,0,0,0,0,0,0],"split_type":[0,0,0,0,0,0,0,0,0,0,0,0,0,0,0,0,0,0,0,0,0,0,0,0,0,0,0,0,0,0,0],"sum_hessian":[4.6843E4,3.302E4,1.3823E4,2.5349E4,7.671E3,5.533E3,8.29E3,3.371E3,2.1978E4,1.583E3,6.088E3,4.221E3,1.312E3,2.87E2,8.003E3,3.23E2,3.048E3,2.072E4,1.258E3,7.5E2,8.33E2,1.68E2,5.92E3,2.696E3,1.525E3,5.1E1,1.261E3,3.1E1,2.56E2,4.39E3,3.613E3],"tree_param":{"num_deleted":"0","num_feature":"9","num_nodes":"31","size_leaf_vector":"0"}},{"base_weights":[-2.4822673E-3,-5.913415E-2,-9.7824886E-5,-1.3689346E-2,-8.4039494E-2,-5.489681E-3,4.9522936E-2,-2.9400993E-2,1.4390911E-1,-1.2038903E-1,-1.4845144E-2,-5.7138838E-2,2.1049501E-3,8.586165E-2,-3.333363E-3,-1.1760464E-2,-9.210825E-2,2.952372E-1,3.7770968E-2,-1.471762E-1,8.5121706E-2,-2.5620257E-2,1.5949903E-2,-1.199563E-1,-1.3453163E-2,1.6654415E-2,-1.4182203E-2,1.6821574E-1,-5.7492764E-3,-2.5003908E-2,3.3648655E-2],"categories":[],"categories_nodes":[],"categories_segments":[],"categories_sizes":[],"default_left":[1,1,1,1,1,1,1,1,1,1,1,1,1,1,1,0,0,0,0,0,0,0,0,0,0,0,0,0,0,0,0],"id":12,"left_children":[1,3,5,7,9,11,13,15,17,19,21,23,25,27,29,-1,-1,-1,-1,-1,-1,-1,-1,-1,-1,-1,-1,-1,-1,-1,-1],"loss_changes":[6.32783E0,2.1402497E0,1.2027358E1,1.6657152E0,3.071766E0,1.5905329E1,8.463024E0,6.7479837E-1,9.6861136E-1,4.4220753E0,1.4043671E-1,1.4262857E1,8.377341E0,1.9699747E1,1.4401925E0,0E0,0E0,0E0,0E0,0E0,0E0,0E0,0E0,0E0,0E0,0E0,0E0,0E0,0E0,0E0,0E0],"parents":[2147483647,0,0,1,1,2,2,3,3,4,4,5,5,6,6,7,7,8,8,9,9,10,10,11,11,12,12,13,13,14,14],"right_children":[2,4,6,8,10,12,14,16,18,20,22,24,26,28,30,-1,-1,-1,-1,-1,-1,-1,-1,-1,-1,-1,-1,-1,-1,-1,-1],"split_conditions":[6.5E0,9.4444446E-2,9.993639E-1,5.37588E-1,3.27451E-1,1.45E1,5E-3,4.806135E-1,8.482052E-3,1.6748357E-1,3.5586464E-1,7.596154E-1,7.378095E-1,2.3401806E-1,1.0290763E-1,-3.5281393E-3,-2.7632477E-2,8.857117E-2,1.1331291E-2,-4.4152863E-2,2.5536513E-2,-7.6860776E-3,4.784971E-3,-3.5986893E-2,-4.0359492E-3,4.996325E-3,-4.254661E-3,5.0464723E-2,-1.724783E-3,-7.501173E-3,1.0094597E-2],"split_indices":[6,8,0,7,8,6,5,7,3,3,4,0,7,8,3,0,0,0,0,0,0,0,0,0,0,0,0,0,0,0,0],"split_type":[0,0,0,0,0,0,0,0,0,0,0,0,0,0,0,0,0,0,0,0,0,0,0,0,0,0,0,0,0,0,0],"sum_hessian":[4.6843E4,1.891E3,4.4952E4,6.7E2,1.221E3,4.0547E4,4.405E3,6.1E2,6E1,8E2,4.21E2,5.197E3,3.535E4,2.61E3,1.795E3,4.77E2,1.33E2,2.4E1,3.6E1,7.08E2,9.2E1,3.12E2,1.09E2,2.131E3,3.066E3,1.8671E4,1.6679E4,1.374E3,1.236E3,1.132E3,6.63E2],"tree_param":{"num_deleted":"0","num_feature":"9","num_nodes":"31","size_leaf_vector":"0"}},{"base_weights":[-1.7363195E-3,1.5895031E-2,-7.5985086E-3,-4.865005E-2,2.7188335E-2,-7.869087E-2,-5.2611222E-3,-1.3197516E-1,-2.5288166E-2,-1.36793405E-2,4.4374082E-2,-1.298876E-1,-4.2442316E-3,2.566168E-2,-9.203374E-3,-1.6140921E-1,-1.7411947E-2,-8.151953E-2,1.0341867E-2,5.066409E-3,-8.387086E-2,8.735943E-2,-5.647586E-3,-6.4372584E-2,-2.2441715E-1,6.549963E-3,-8.165534E-2,5.5654388E-2,-2.3237403E-2,8.211196E-3,-1.9261977E-2],"categories":[],"categories_nodes":[],"categories_segments":[],"categories_sizes":[],"default_left":[1,1,1,1,1,1,1,1,1,1,1,1,1,1,1,0,0,0,0,0,0,0,0,0,0,0,0,0,0,0,0],"id":13,"left_children":[1,3,5,7,9,11,13,15,17,19,21,23,25,27,29,-1,-1,-1,-1,-1,-1,-1,-1,-1,-1,-1,-1,-1,-1,-1,-1],"loss_changes":[4.8418374E0,8.521753E0,5.84147E0,3.385748E0,6.9882035E0,4.2644324E0,4.149656E0,1.2819448E0,2.727641E0,3.8767498E0,1.5060487E1,4.0915813E0,3.8239968E-1,5.6462975E0,5.2884274E0,0E0,0E0,0E0,0E0,0E0,0E0,0E0,0E0,0E0,0E0,0E0,0E0,0E0,0E0,0E0,0E0],"parents":[2147483647,0,0,1,1,2,2,3,3,4,4,5,5,6,6,7,7,8,8,9,9,10,10,11,11,12,12,13,13,14,14],"right_children":[2,4,6,8,10,12,14,16,18,20,22,24,26,28,30,-1,-1,-1,-1,-1,-1,-1,-1,-1,-1,-1,-1,-1,-1,-1,-1],"split_conditions":[3.1629667E-1,8.5E0,1.2386802E-1,9.375E-1,8.3214924E-2,2.548475E-1,3.57766E-1,2.80007E-1,8.593991E-3,1.687102E-2,2.949226E-1,1.25E1,2.55E1,2.5593445E-1,9.85932E-1,-4.8422765E-2,-5.2235844E-3,-2.445586E-2,3.1025603E-3,1.5199227E-3,-2.5161259E-2,2.6207829E-2,-1.6942759E-3,-1.9311776E-2,-6.7325145E-2,1.964989E-3,-2.4496602E-2,1.6696317E-2,-6.9712214E-3,2.463359E-3,-5.778593E-3],"split_indices":[4,6,7,0,8,8,7,8,7,3,8,6,6,8,2,0,0,0,0,0,0,0,0,0,0,0,0,0,0,0,0],"split_type":[0,0,0,0,0,0,0,0,0,0,0,0,0,0,0,0,0,0,0,0,0,0,0,0,0,0,0,0,0,0,0],"sum_hessian":[4.6843E4,1.1688E4,3.5155E4,1.74E3,9.948E3,1.118E3,3.4037E4,3.8E2,1.36E3,2.945E3,7.003E3,6.62E2,4.56E2,3.848E3,3.0189E4,3.02E2,7.8E1,5.27E2,8.33E2,2.325E3,6.2E2,3.766E3,3.237E3,3.92E2,2.7E2,4.01E2,5.5E1,2.385E3,1.463E3,1.1053E4,1.9136E4],"tree_param":{"num_deleted":"0","num_feature":"9","num_nodes":"31","size_leaf_vector":"0"}},{"base_weights":[-1.2191965E-3,2.842173E-3,-2.0892063E-2,-1.5229373E-1,3.4195583E-3,-5.2025966E-2,-9.1725085E-3,-1.9305526E-1,-2.46465E-2,1.5556757E-2,-4.1608554E-3,-2.4575781E-2,-9.652103E-2,-4.4136085E-2,-6.377611E-3,-2.8593114E-1,-1.3507022E-1,2.6032764E-2,-6.208563E-2,-2.298158E-2,2.9848251E-2,-8.072351E-2,3.5306267E-3,-1.920624E-1,-1.4350366E-2,1.0983513E-2,-1.5126339E-1,-9.8821625E-2,2.7590203E-3,-5.121446E-2,-4.632632E-3],"categories":[],"categories_nodes":[],"categories_segments":[],"categories_sizes":[],"default_left":[1,1,1,1,1,1,1,1,1,1,1,1,1,1,1,0,0,0,0,0,0,0,0,0,0,0,0,0,0,0,0],"id":14,"left_children":[1,3,5,7,9,11,13,15,17,19,21,23,25,27,29,-1,-1,-1,-1,-1,-1,-1,-1,-1,-1,-1,-1,-1,-1,-1,-1],"loss_changes":[3.742838E0,3.478558E0,2.9243643E0,7.444873E-1,3.5593696E0,2.6749315E0,5.689353E-1,5.4838943E-1,6.992221E-2,8.192295E0,1.4023881E1,2.321269E0,4.921565E0,1.1055653E0,4.2186412E-1,0E0,0E0,0E0,0E0,0E0,0E0,0E0,0E0,0E0,0E0,0E0,0E0,0E0,0E0,0E0,0E0],"parents":[2147483647,0,0,1,1,2,2,3,3,4,4,5,5,6,6,7,7,8,8,9,9,10,10,11,11,12,12,13,13,14,14],"right_children":[2,4,6,8,10,12,14,16,18,20,22,24,26,28,30,-1,-1,-1,-1,-1,-1,-1,-1,-1,-1,-1,-1,-1,-1,-1,-1],"split_conditions":[4.0351176E-1,1.9099712E-3,2.1503568E-1,2.940523E-1,5.07063E-1,6.57701E-1,7.019338E-2,1.1319816E-3,6.5E0,7.356712E-2,5.39499E-1,1.10724986E-1,9.837302E-1,3.4087896E-1,7.7391607E-1,-8.577935E-2,-4.0521067E-2,7.8098294E-3,-1.862569E-2,-6.8944744E-3,8.954476E-3,-2.4217054E-2,1.059188E-3,-5.761872E-2,-4.30511E-3,3.295054E-3,-4.5379017E-2,-2.9646488E-2,8.277061E-4,-1.5364339E-2,-1.3897896E-3],"split_indices":[4,7,8,8,7,7,3,7,6,8,7,7,2,8,2,0,0,0,0,0,0,0,0,0,0,0,0,0,0,0,0],"split_type":[0,0,0,0,0,0,0,0,0,0,0,0,0,0,0,0,0,0,0,0,0,0,0,0,0,0,0,0,0,0,0],"sum_hessian":[4.6843E4,3.8828E4,8.015E3,1.43E2,3.8685E4,2.191E3,5.824E3,1.08E2,3.5E1,1.4872E4,2.3813E4,1.356E3,8.35E2,4.3E2,5.394E3,4E1,6.8E1,1.5E1,2E1,4.023E3,1.0849E4,2.173E3,2.164E4,7.7E1,1.279E3,2.82E2,5.53E2,1.98E2,2.32E2,2.01E2,5.193E3],"tree_param":{"num_deleted":"0","num_feature":"9","num_nodes":"31","size_leaf_vector":"0"}},{"base_weights":[-8.600055E-4,-6.645192E-3,1.0009671E-2,-5.8448583E-2,3.0527378E-3,-2.7939549E-2,1.8586304E-2,-8.783057E-2,-1.7720367E-3,2.0840392E-2,-1.3991291E-2,1.4507731E-2,-4.4949014E-2,4.7614902E-2,-3.0549488E-3,-1.158188E-1,-1.836158E-2,2.2769855E-2,-1.8164624E-2,-2.3779698E-2,3.41622E-2,-5.9473738E-2,-9.802149E-3,-3.7939874E-3,1.7905451E-1,-6.2410854E-2,2.1781662E-2,9.501804E-2,-1.1404519E-2,5.1318193E-3,-6.389867E-2],"categories":[],"categories_nodes":[],"categories_segments":[],"categories_sizes":[],"default_left":[1,1,1,1,1,1,1,1,1,1,1,1,1,1,1,0,0,0,0,0,0,0,0,0,0,0,0,0,0,0,0],"id":15,"left_children":[1,3,5,7,9,11,13,15,17,19,21,23,25,27,29,-1,-1,-1,-1,-1,-1,-1,-1,-1,-1,-1,-1,-1,-1,-1,-1],"loss_changes":[2.9457626E0,1.5359614E1,5.2966733E0,8.028109E0,7.8079133E0,2.166669E0,8.338448E0,6.171072E0,6.630101E-1,7.4916973E0,2.505299E0,2.5875485E0,2.4973044E0,1.5861274E1,3.7884805E0,0E0,0E0,0E0,0E0,0E0,0E0,0E0,0E0,0E0,0E0,0E0,0E0,0E0,0E0,0E0,0E0],"parents":[2147483647,0,0,1,1,2,2,3,3,4,4,5,5,6,6,7,7,8,8,9,9,10,10,11,11,12,12,13,13,14,14],"right_children":[2,4,6,8,10,12,14,16,18,20,22,24,26,28,30,-1,-1,-1,-1,-1,-1,-1,-1,-1,-1,-1,-1,-1,-1,-1,-1],"split_conditions":[7.58477E-1,2.25E1,7.5E0,2.814951E-1,1.1539488E-1,2.5536232E-2,5E-3,6.7424244E-1,1.45E1,8.206941E-2,3.7147695E-1,5.37102E-1,1.4610802E-1,2.3390523E-1,1.305E2,-3.474564E-2,-5.508474E-3,6.830957E-3,-5.4493872E-3,-7.1339095E-3,1.0248661E-2,-1.7842121E-2,-2.9406447E-3,-1.1381963E-3,5.3716358E-2,-1.8723257E-2,6.534499E-3,2.8505413E-2,-3.4213557E-3,1.5395458E-3,-1.91696E-2],"split_indices":[0,6,6,8,3,3,5,0,6,8,7,7,3,8,6,0,0,0,0,0,0,0,0,0,0,0,0,0,0,0,0],"split_type":[0,0,0,0,0,0,0,0,0,0,0,0,0,0,0,0,0,0,0,0,0,0,0,0,0,0,0,0,0,0,0],"sum_hessian":[4.6843E4,3.0572E4,1.6271E4,4.82E3,2.5752E4,2.999E3,1.3272E4,3.174E3,1.646E3,1.2601E4,1.3151E4,8.58E2,2.141E3,5.668E3,7.604E3,2.262E3,9.12E2,6.59E2,9.87E2,2.897E3,9.704E3,1.108E3,1.2043E4,7.73E2,8.5E1,1.697E3,4.44E2,3.143E3,2.525E3,6.703E3,9.01E2],"tree_param":{"num_deleted":"0","num_feature":"9","num_nodes":"31","size_leaf_vector":"0"}},{"base_weights":[-6.0218864E-4,5.3377654E-3,-1.0436415E-2,-2.0659665E-2,1.0225285E-2,1.8669924E-2,-2.0379014E-2,-8.924627E-2,1.847251E-3,1.9654777E-2,-1.024775E-2,5.1270857E-2,-2.1503443E-2,-6.295006E-2,-5.595947E-4,-1.1775966E-1,1.0768637E-3,-1.2390525E-2,6.9821894E-2,-6.5576616E-3,4.352342E-2,-1.1212931E-1,-9.585195E-3,6.816542E-2,-6.943027E-2,-2.0004626E-1,-1.3140472E-2,-2.4856012E-2,-1.615347E-1,-1.107752E-3,4.9086452E-1],"categories":[],"categories_nodes":[],"categories_segments":[],"categories_sizes":[],"default_left":[1,1,1,1,1,1,1,1,1,1,1,1,1,1,1,0,0,0,0,0,0,0,0,0,0,0,0,0,0,0,0],"id":16,"left_children":[1,3,5,7,9,11,13,15,17,19,21,23,25,27,29,-1,-1,-1,-1,-1,-1,-1,-1,-1,-1,-1,-1,-1,-1,-1,-1],"loss_changes":[2.736441E0,3.7110844E0,5.1052675E0,7.135022E0,4.746151E0,5.884227E0,1.1094214E1,2.9412537E0,3.3698037E0,1.0531315E1,5.222695E-1,5.0619307E0,3.003079E0,1.5682661E1,2.4176698E0,0E0,0E0,0E0,0E0,0E0,0E0,0E0,0E0,0E0,0E0,0E0,0E0,0E0,0E0,0E0,0E0],"parents":[2147483647,0,0,1,1,2,2,3,3,4,4,5,5,6,6,7,7,8,8,9,9,10,10,11,11,12,12,13,13,14,14],"right_children":[2,4,6,8,10,12,14,16,18,20,22,24,26,28,30,-1,-1,-1,-1,-1,-1,-1,-1,-1,-1,-1,-1,-1,-1,-1,-1],"split_conditions":[7.417975E-1,9.5E0,8.7357616E-1,8.819444E-1,3.6996734E-1,1.1380124E-1,2.7771378E-1,3.036765E-1,1.438807E-1,1.10427245E-1,4.5896846E-1,5.449103E-1,1.91919E-1,1.625E2,3.4811485E-1,-3.53279E-2,3.2305912E-4,-3.7171578E-3,2.094657E-2,-1.9672986E-3,1.3057026E-2,-3.3638794E-2,-2.8755586E-3,2.0449627E-2,-2.0829082E-2,-6.001388E-2,-3.942142E-3,-7.456804E-3,-4.8460413E-2,-3.323256E-4,1.4725935E-1],"split_indices":[7,6,2,0,8,3,8,8,3,8,1,8,8,6,3,0,0,0,0,0,0,0,0,0,0,0,0,0,0,0,0],"split_type":[0,0,0,0,0,0,0,0,0,0,0,0,0,0,0,0,0,0,0,0,0,0,0,0,0,0,0,0,0,0,0],"sum_hessian":[4.6843E4,2.9204E4,1.7639E4,4.621E3,2.4583E4,4.491E3,1.3148E4,1.141E3,3.48E3,1.6831E4,7.752E3,2.479E3,2.012E3,4.176E3,8.972E3,8.67E2,2.74E2,2.878E3,6.02E2,8.022E3,8.809E3,4.9E1,7.703E3,2.175E3,3.04E2,8.9E1,1.923E3,3.013E3,1.163E3,8.963E3,9E0],"tree_param":{"num_deleted":"0","num_feature":"9","num_nodes":"31","size_leaf_vector":"0"}},{"base_weights":[-4.2188546E-4,2.8283969E-2,-2.650591E-3,2.4021853E-2,2.5564474E-1,-3.9016865E-2,8.9731533E-4,-5.0485993E-5,4.2473916E-2,-1.9799277E-1,2.9891106E-1,2.043998E-3,-6.8503454E-2,1.4356342E-2,-3.8358576E-3,-5.566131E-2,5.282097E-3,3.936025E-2,2.2066894E-1,1.7082894E-1,-3.059229E-1,3.5470113E-1,1.0222005E-1,-2.0795291E-2,1.593466E-1,-3.0694693E-2,-2.3307851E-1,-6.8117445E-3,9.366912E-2,2.2106318E-2,-7.632198E-3],"categories":[],"categories_nodes":[],"categories_segments":[],"categories_sizes":[],"default_left":[1,1,1,1,1,1,1,1,1,1,1,1,1,1,1,0,0,0,0,0,0,0,0,0,0,0,0,0,0,0,0],"id":17,"left_children":[1,3,5,7,9,11,13,15,17,19,21,23,25,27,29,-1,-1,-1,-1,-1,-1,-1,-1,-1,-1,-1,-1,-1,-1,-1,-1],"loss_changes":[2.9970086E0,3.2643614E0,5.608714E0,1.4720291E0,1.2760701E0,4.6784573E0,2.5231752E0,4.2702854E-1,1.0321939E0,2.911023E-1,5.892267E-1,5.8090835E0,1.3986977E1,1.7301699E1,2.886084E0,0E0,0E0,0E0,0E0,0E0,0E0,0E0,0E0,0E0,0E0,0E0,0E0,0E0,0E0,0E0,0E0],"parents":[2147483647,0,0,1,1,2,2,3,3,4,4,5,5,6,6,7,7,8,8,9,9,10,10,11,11,12,12,13,13,14,14],"right_children":[2,4,6,8,10,12,14,16,18,20,22,24,26,28,30,-1,-1,-1,-1,-1,-1,-1,-1,-1,-1,-1,-1,-1,-1,-1,-1],"split_conditions":[9.705637E-3,5.0457753E-3,7.3595956E-2,3.99185E-1,1.1999053E-1,1.0610419E-2,1.5780494E-1,4.503505E-2,5.015E2,8.636364E-1,3.675809E-1,5.0588235E-2,5E-3,9.693198E-2,6.320161E-2,-1.6698394E-2,1.5846292E-3,1.1808076E-2,6.620069E-2,5.1248685E-2,-9.177687E-2,1.0641035E-1,3.0666016E-2,-6.2385877E-3,4.780398E-2,-9.208408E-3,-6.992356E-2,-2.0435234E-3,2.8100736E-2,6.6318954E-3,-2.2896593E-3],"split_indices":[8,3,8,7,7,3,8,7,6,0,4,8,5,3,3,0,0,0,0,0,0,0,0,0,0,0,0,0,0,0,0],"split_type":[0,0,0,0,0,0,0,0,0,0,0,0,0,0,0,0,0,0,0,0,0,0,0,0,0,0,0,0,0,0,0],"sum_hessian":[4.6843E4,3.374E3,4.3469E4,3.313E3,6.1E1,3.863E3,3.9606E4,1.438E3,1.875E3,5E0,5.6E1,1.615E3,2.248E3,1.0304E4,2.9302E4,1.25E2,1.313E3,1.844E3,3.1E1,1E0,4E0,4.3E1,1.3E1,1.411E3,2.04E2,1.829E3,4.19E2,8.134E3,2.17E3,3.74E3,2.5562E4],"tree_param":{"num_deleted":"0","num_feature":"9","num_nodes":"31","size_leaf_vector":"0"}},{"base_weights":[-2.9206945E-4,1.6343884E-2,-2.3473173E-3,1.094761E-2,8.058484E-2,-4.7827654E-2,3.4470684E-4,1.318356E-2,-2.4634457E-1,3.7327623E-1,5.3174753E-2,-2.161531E-2,-1.6068853E-1,-2.8707406E-2,2.6568198E-3,-2.1934866E-3,3.778126E-2,-3.4210023E-1,-2.0442016E-1,5.057124E-1,2.2746007E-1,2.2553211E-2,1.4683022E-1,-8.289333E-2,-3.317949E-3,-6.759932E-2,-2.1488656E-1,-8.029298E-2,-1.2117457E-2,-3.556259E-3,1.888404E-2],"categories":[],"categories_nodes":[],"categories_segments":[],"categories_sizes":[],"default_left":[1,1,1,1,1,1,1,1,1,1,1,1,1,1,1,0,0,0,0,0,0,0,0,0,0,0,0,0,0,0,0],"id":18,"left_children":[1,3,5,7,9,11,13,15,17,19,21,23,25,27,29,-1,-1,-1,-1,-1,-1,-1,-1,-1,-1,-1,-1,-1,-1,-1,-1],"loss_changes":[1.6016818E0,1.7847723E0,5.1047864E0,2.7376127E0,3.1812074E0,6.8894777E0,2.6442928E0,1.782728E0,9.466219E-2,5.415554E-1,1.0463306E0,2.1210845E0,2.2003393E0,2.4825642E0,3.676404E0,0E0,0E0,0E0,0E0,0E0,0E0,0E0,0E0,0E0,0E0,0E0,0E0,0E0,0E0,0E0,0E0],"parents":[2147483647,0,0,1,1,2,2,3,3,4,4,5,5,6,6,7,7,8,8,9,9,10,10,11,11,12,12,13,13,14,14],"right_children":[2,4,6,8,10,12,14,16,18,20,22,24,26,28,30,-1,-1,-1,-1,-1,-1,-1,-1,-1,-1,-1,-1,-1,-1,-1,-1],"split_conditions":[9.821303E-3,5.0588235E-2,7.3595956E-2,2.6223775E-2,6.1862744E-2,5E-3,8.5E0,5.1256746E-1,5.7702353E-3,8.5E0,2.7034938E-1,1.9854221E-2,2.0497449E-2,9.375E-1,7.498126E-1,-6.58046E-4,1.1334378E-2,-1.0263007E-1,-6.1326053E-2,1.5171373E-1,6.823803E-2,6.7659635E-3,4.4049066E-2,-2.4867998E-2,-9.953848E-4,-2.0279797E-2,-6.446597E-2,-2.4087895E-2,-3.6352372E-3,-1.0668777E-3,5.6652124E-3],"split_indices":[3,8,8,8,8,5,6,7,3,6,8,3,3,0,0,0,0,0,0,0,0,0,0,0,0,0,0,0,0,0,0],"split_type":[0,0,0,0,0,0,0,0,0,0,0,0,0,0,0,0,0,0,0,0,0,0,0,0,0,0,0,0,0,0,0],"sum_hessian":[4.6843E4,5.15E3,4.1693E4,4.752E3,3.98E2,2.329E3,3.9364E4,4.712E3,4E1,3.3E1,3.65E2,1.891E3,4.38E2,2.901E3,3.6463E4,2.9E3,1.812E3,1E1,3E1,1.6E1,1.7E1,2.76E2,8.9E1,4.34E2,1.457E3,1.62E2,2.76E2,7.05E2,2.196E3,2.6368E4,1.0095E4],"tree_param":{"num_deleted":"0","num_feature":"9","num_nodes":"31","size_leaf_vector":"0"}},{"base_weights":[-2.0479513E-4,1.023364E-2,-3.4451191E-3,1.6918506E-2,-2.34289E-2,-5.8130138E-2,-1.6290344E-3,-1.0787704E-2,2.9862365E-2,-3.3810526E-2,2.0834109E-2,-4.8380665E-2,-3.670596E-1,2.1946331E-2,-3.159221E-3,-1.3678049E-1,3.9044095E-3,6.535352E-3,5.05839E-2,-3.5038173E-2,2.3128071E-1,3.2099342E-4,9.8667145E-2,-5.982279E-2,4.8802543E-2,-4.588231E-1,1.5293457E-1,6.344734E-2,1.1124117E-2,-5.9753202E-2,-1.3324063E-3],"categories":[],"categories_nodes":[],"categories_segments":[],"categories_sizes":[],"default_left":[1,1,1,1,1,1,1,1,1,1,1,1,1,1,1,0,0,0,0,0,0,0,0,0,0,0,0,0,0,0,0],"id":19,"left_children":[1,3,5,7,9,11,13,15,17,19,21,23,25,27,29,-1,-1,-1,-1,-1,-1,-1,-1,-1,-1,-1,-1,-1,-1,-1,-1],"loss_changes":[1.5844826E0,2.4975498E0,3.550133E0,3.320834E0,8.4576535E-1,3.4429135E0,1.2482542E0,5.4594283E0,3.0502262E0,4.9300706E-1,5.587777E-1,1.2427797E0,1.7402472E0,9.4651544E-1,3.3591614E0,0E0,0E0,0E0,0E0,0E0,0E0,0E0,0E0,0E0,0E0,0E0,0E0,0E0,0E0,0E0,0E0],"parents":[2147483647,0,0,1,1,2,2,3,3,4,4,5,5,6,6,7,7,8,8,9,9,10,10,11,11,12,12,13,13,14,14],"right_children":[2,4,6,8,10,12,14,16,18,20,22,24,26,28,30,-1,-1,-1,-1,-1,-1,-1,-1,-1,-1,-1,-1,-1,-1,-1,-1],"split_conditions":[3.1485415E-1,5.6356764E-1,1.2386802E-1,1.25E1,1.8532252E-1,1.2222102E-1,1.1722834E-2,6.8333334E-1,3.7871033E-2,3.1474912E-1,8.535714E-1,1.07225E-1,9.2582417E-1,5E-3,3.762399E-2,-4.1034147E-2,1.1713229E-3,1.9606058E-3,1.517517E-2,-1.0511452E-2,6.938422E-2,9.6298034E-5,2.9600145E-2,-1.7946837E-2,1.4640763E-2,-1.3764694E-1,4.588037E-2,1.9034203E-2,3.3372354E-3,-1.7925961E-2,-3.997219E-4],"split_indices":[4,8,7,6,3,7,8,0,3,4,0,7,0,5,8,0,0,0,0,0,0,0,0,0,0,0,0,0,0,0,0],"split_type":[0,0,0,0,0,0,0,0,0,0,0,0,0,0,0,0,0,0,0,0,0,0,0,0,0,0,0,0,0,0,0],"sum_hessian":[4.6843E4,1.1096E4,3.5747E4,9.258E3,1.838E3,1.148E3,3.4599E4,2.948E3,6.31E3,1.489E3,3.49E2,1.114E3,3.4E1,2.108E3,3.2491E4,3.07E2,2.641E3,2.969E3,3.341E3,1.483E3,6E0,2.77E2,7.2E1,9.97E2,1.17E2,2.9E1,5E0,4.35E2,1.673E3,1.015E3,3.1476E4],"tree_param":{"num_deleted":"0","num_feature":"9","num_nodes":"31","size_leaf_vector":"0"}},{"base_weights":[-1.4389926E-4,-9.321324E-2,1.9708287E-4,-2.1463288E-1,-6.479437E-2,1.0633556E-2,-2.7324087E-3,-3.1811208E-1,-5.886591E-2,-7.785563E-2,9.545649E-2,-9.137284E-2,1.5862755E-2,-8.4311046E-2,-1.9846512E-3,2.423925E-2,-3.5981455E-1,3.5906115E-3,-9.396293E-2,-9.9548444E-2,2.2102116E-2,2.0250657E-1,-7.3504925E-2,-1.9994596E-1,-3.2112837E-2,4.5202556E-3,4.4864073E-2,-9.659418E-2,1.902556E-2,3.6030293E-3,-1.0837235E-2],"categories":[],"categories_nodes":[],"categories_segments":[],"categories_sizes":[],"default_left":[1,1,1,1,1,1,1,1,1,1,1,1,1,1,1,0,0,0,0,0,0,0,0,0,0,0,0,0,0,0,0],"id":20,"left_children":[1,3,5,7,9,11,13,15,17,19,21,23,25,27,29,-1,-1,-1,-1,-1,-1,-1,-1,-1,-1,-1,-1,-1,-1,-1,-1],"loss_changes":[1.486612E0,5.761471E-1,1.4270194E0,4.9707055E-1,3.0046296E-1,5.458251E0,2.2230155E0,2.7998257E-1,3.1025913E-2,2.8408766E-1,2.1384591E-1,3.2041664E0,3.2011137E0,4.2197514E-1,1.7864822E0,0E0,0E0,0E0,0E0,0E0,0E0,0E0,0E0,0E0,0E0,0E0,0E0,0E0,0E0,0E0,0E0],"parents":[2147483647,0,0,1,1,2,2,3,3,4,4,5,5,6,6,7,7,8,8,9,9,10,10,11,11,12,12,13,13,14,14],"right_children":[2,4,6,8,10,12,14,16,18,20,22,24,26,28,30,-1,-1,-1,-1,-1,-1,-1,-1,-1,-1,-1,-1,-1,-1,-1,-1],"split_conditions":[2.5929958E-3,9.104278E-1,3.6059648E-1,1.7839572E-1,1.05E1,4.8056602E-1,3.624415E-1,7.593583E-2,9.5E0,3.6771244E-1,5.4864064E-2,5.25E1,1.0055648E-1,2.0648077E-1,9.152396E-1,7.271775E-3,-1.0794437E-1,1.0771835E-3,-2.818888E-2,-2.9864535E-2,6.630635E-3,6.0751975E-2,-2.2051478E-2,-5.998379E-2,-9.633851E-3,1.3560767E-3,1.3459222E-2,-2.8978255E-2,5.707668E-3,1.0809088E-3,-3.2511705E-3],"split_indices":[7,0,7,8,6,0,7,8,6,8,3,6,3,8,1,0,0,0,0,0,0,0,0,0,0,0,0,0,0,0,0],"split_type":[0,0,0,0,0,0,0,0,0,0,0,0,0,0,0,0,0,0,0,0,0,0,0,0,0,0,0,0,0,0,0],"sum_hessian":[4.6843E4,1.7E2,4.6673E4,3.1E1,1.39E2,1.0229E4,3.6444E4,1.8E1,1.3E1,1.29E2,1E1,4.98E2,9.731E3,3.3E2,3.6114E4,2E0,1.6E1,5E0,8E0,1.06E2,2.3E1,6E0,4E0,1.75E2,3.23E2,6.996E3,2.735E3,2.95E2,3.5E1,2.214E4,1.3974E4],"tree_param":{"num_deleted":"0","num_feature":"9","num_nodes":"31","size_leaf_vector":"0"}},{"base_weights":[-1.04840634E-4,4.036884E-3,-6.8386197E-3,1.0297715E-2,-6.2510087E-3,-3.9527364E-2,-1.7083685E-3,2.771844E-3,3.5074566E-2,-1.9306036E-2,-4.427953E-4,-9.770043E-2,5.5058086E-3,-2.120456E-3,4.5194528E-1,-4.0901843E-3,5.6176268E-2,1.2957631E-1,-1.3482553E-2,-2.0161195E-1,-1.8269703E-2,1.8045676E-1,-8.484483E-4,-1.3650656E-1,-1.7007116E-3,2.4418704E-2,-1.4264711E-2,-5.46915E-3,2.0912316E-2],"categories":[],"categories_nodes":[],"categories_segments":[],"categories_sizes":[],"default_left":[1,1,1,1,1,1,1,1,1,1,1,1,1,1,0,0,0,0,0,0,0,0,0,0,0,0,0,0,0],"id":21,"left_children":[1,3,5,7,9,11,13,15,17,19,21,23,25,27,-1,-1,-1,-1,-1,-1,-1,-1,-1,-1,-1,-1,-1,-1,-1],"loss_changes":[1.3064814E0,1.8682982E0,2.9917269E0,3.3622823E0,8.3211017E-1,6.340255E0,2.8838365E0,5.069142E0,1.927901E1,6.3471043E-1,5.575661E-1,3.9337673E0,5.107461E-1,1.1885289E0,0E0,0E0,0E0,0E0,0E0,0E0,0E0,0E0,0E0,0E0,0E0,0E0,0E0,0E0,0E0],"parents":[2147483647,0,0,1,1,2,2,3,3,4,4,5,5,6,6,7,7,8,8,9,9,10,10,11,11,12,12,13,13],"right_children":[2,4,6,8,10,12,14,16,18,20,22,24,26,28,-1,-1,-1,-1,-1,-1,-1,-1,-1,-1,-1,-1,-1,-1,-1],"split_conditions":[7.378095E-1,2.804516E-1,7.74804E-1,9.21475E-2,3.9867148E-1,2.65E1,3.6219013E-1,1.7356528E-1,1.4947668E-1,2.8159314E-1,3.995855E-1,2.518797E-1,9.8653185E-1,2.9500002E-1,1.355836E-1,-1.2270553E-3,1.6852882E-2,3.8872894E-2,-4.044766E-3,-6.0483586E-2,-5.480911E-3,5.413703E-2,-2.545345E-4,-4.0951967E-2,-5.102135E-4,7.3256115E-3,-4.2794137E-3,-1.6407451E-3,6.273695E-3],"split_indices":[7,8,7,3,7,6,3,8,8,8,7,8,2,5,0,0,0,0,0,0,0,0,0,0,0,0,0,0,0],"split_type":[0,0,0,0,0,0,0,0,0,0,0,0,0,0,0,0,0,0,0,0,0,0,0,0,0,0,0,0,0],"sum_hessian":[4.6843E4,2.9004E4,1.7839E4,1.8031E4,1.0973E4,2.419E3,1.542E4,1.3831E4,4.2E3,3.378E3,7.595E3,1.055E3,1.364E3,1.5407E4,1.3E1,1.2257E4,1.574E3,1.425E3,2.775E3,1.8E1,3.36E3,1.6E1,7.579E3,7.51E2,3.04E2,6.97E2,6.67E2,1.3452E4,1.955E3],"tree_param":{"num_deleted":"0","num_feature":"9","num_nodes":"29","size_leaf_vector":"0"}},{"base_weights":[-7.039439E-5,1.1558161E-3,-2.2492502E-2,4.7561483E-4,8.018893E-2,-2.6615843E-1,-1.3865843E-2,8.48022E-3,-3.0867602E-3,1.6202864E-1,-3.6343158E-4,1.4439698E-1,-3.0002505E-1,-8.0543295E-2,-9.114225E-3,2.155923E-3,2.734661E-2,-6.3896544E-2,-1.8051856E-3,1.8340132E-1,-1.9855016E-1,-8.5201636E-2,4.475183E-2,-2.703188E-1,-5.5847055E-1,2.6116145E-1,-1.057365E-1,1.6287537E-1,-9.8188E-3],"categories":[],"categories_nodes":[],"categories_segments":[],"categories_sizes":[],"default_left":[1,1,1,1,1,1,1,1,1,1,1,0,1,1,1,0,0,0,0,0,0,0,0,0,0,0,0,0,0],"id":22,"left_children":[1,3,5,7,9,11,13,15,17,19,21,-1,23,25,27,-1,-1,-1,-1,-1,-1,-1,-1,-1,-1,-1,-1,-1,-1],"loss_changes":[1.2879654E0,2.3876965E0,5.102122E0,1.2557876E0,2.4985714E0,1.1973648E0,7.4285614E-1,1.6182327E0,2.3749485E0,1.4852433E0,7.386926E-1,0E0,4.4019794E-1,1.3705618E0,2.672249E-1,0E0,0E0,0E0,0E0,0E0,0E0,0E0,0E0,0E0,0E0,0E0,0E0,0E0,0E0],"parents":[2147483647,0,0,1,1,2,2,3,3,4,4,5,5,6,6,7,7,8,8,9,9,10,10,12,12,13,13,14,14],"right_children":[2,4,6,8,10,12,14,16,18,20,22,-1,24,26,28,-1,-1,-1,-1,-1,-1,-1,-1,-1,-1,-1,-1,-1,-1],"split_conditions":[9.51E2,4.05E-1,1.4965566E-1,5.1457267E-2,2.3234361E-1,6.3109666E-2,6.9799334E-2,1.2223856E-1,8.373385E-2,1.16340056E-1,7.1388975E-2,4.3319095E-2,9.4793904E-1,1.9944596E-1,2.527128E-1,6.467769E-4,8.203983E-3,-1.9168964E-2,-5.415557E-4,5.5020396E-2,-5.9565052E-2,-2.5560493E-2,1.34255495E-2,-8.109564E-2,-1.6754118E-1,7.8348435E-2,-3.172095E-2,4.8862614E-2,-2.9456401E-3],"split_indices":[6,5,8,3,8,8,3,8,8,3,3,0,7,8,4,0,0,0,0,0,0,0,0,0,0,0,0,0,0],"split_type":[0,0,0,0,0,0,0,0,0,0,0,0,0,0,0,0,0,0,0,0,0,0,0,0,0,0,0,0,0],"sum_hessian":[4.6843E4,4.4415E4,2.428E3,4.4037E4,3.78E2,8.2E1,2.346E3,1.3562E4,3.0475E4,1.87E2,1.91E2,6E0,7.6E1,1.55E2,2.191E3,1.0158E4,3.404E3,6.28E2,2.9847E4,1.77E2,1E1,6.6E1,1.25E2,7E1,6E0,1E1,1.45E2,8E0,2.183E3],"tree_param":{"num_deleted":"0","num_feature":"9","num_nodes":"29","size_leaf_vector":"0"}},{"base_weights":[-5.227189E-5,-1.7013663E-2,1.4133975E-3,-1.1459921E-1,-7.5287526E-3,4.3973118E-2,-3.5160623E-4,-1.4349212E-1,-2.5465894E-2,-1.7625082E-2,3.2034628E-2,-3.8310804E-3,8.04437E-2,9.764775E-3,-3.3849534E-3,-7.8250594E-2,-1.9372837E-1,6.6403255E-2,-6.240477E-2,5.276297E-3,-4.592049E-2,1.1595798E-1,-4.34636E-3,1.2817511E-1,-1.3526304E-2,1.3213795E-1,-1.0871506E-2,1.8278763E-2,-1.156908E-2,-3.9832607E-2,-1.9666879E-3],"categories":[],"categories_nodes":[],"categories_segments":[],"categories_sizes":[],"default_left":[1,1,1,1,1,1,1,1,1,1,1,1,1,1,1,0,0,0,0,0,0,0,0,0,0,0,0,0,0,0,0],"id":23,"left_children":[1,3,5,7,9,11,13,15,17,19,21,23,25,27,29,-1,-1,-1,-1,-1,-1,-1,-1,-1,-1,-1,-1,-1,-1,-1,-1],"loss_changes":[1.1645561E0,3.447887E0,3.2390313E0,8.462014E-1,1.3574791E0,2.9938068E0,1.2705461E0,8.0093575E-1,2.8241444E-1,1.7543888E0,2.1102753E0,9.539269E-1,4.599176E0,1.7350185E0,1.646481E0,0E0,0E0,0E0,0E0,0E0,0E0,0E0,0E0,0E0,0E0,0E0,0E0,0E0,0E0,0E0,0E0],"parents":[2147483647,0,0,1,1,2,2,3,3,4,4,5,5,6,6,7,7,8,8,9,9,10,10,11,11,12,12,13,13,14,14],"right_children":[2,4,6,8,10,12,14,16,18,20,22,24,26,28,30,-1,-1,-1,-1,-1,-1,-1,-1,-1,-1,-1,-1,-1,-1,-1,-1],"split_conditions":[1.0218701E-1,6.9504833E-1,1.7415148E-1,3.015083E-1,1.0237498E-1,2.1285962E-2,4.5622002E-2,9.3691185E-2,1.45E1,1.0690731E-1,1.8986928E-1,7.5E0,3.125992E-1,8.25E1,9.416859E-2,-2.347518E-2,-5.8118515E-2,1.9920977E-2,-1.8721431E-2,1.5828892E-3,-1.3776148E-2,3.4787398E-2,-1.3039081E-3,3.8452536E-2,-4.057891E-3,3.9641388E-2,-3.261452E-3,5.483629E-3,-3.4707242E-3,-1.1949782E-2,-5.9000636E-4],"split_indices":[7,0,7,8,3,3,3,8,6,8,8,6,8,6,8,0,0,0,0,0,0,0,0,0,0,0,0,0,0,0,0],"split_type":[0,0,0,0,0,0,0,0,0,0,0,0,0,0,0,0,0,0,0,0,0,0,0,0,0,0,0,0,0,0,0],"sum_hessian":[4.6843E4,3.725E3,4.3118E4,3.29E2,3.396E3,1.716E3,4.1402E4,2.48E2,8.1E1,2.706E3,6.9E2,7.43E2,9.73E2,9.55E3,3.1852E4,1.09E2,1.39E2,2.3E1,5.8E1,1.496E3,1.21E3,2.08E2,4.82E2,5E1,6.93E2,6.21E2,3.52E2,6.826E3,2.724E3,1.192E3,3.066E4],"tree_param":{"num_deleted":"0","num_feature":"9","num_nodes":"31","size_leaf_vector":"0"}},{"base_weights":[-3.6562666E-5,-1.936646E-2,7.7700266E-4,2.0863116E-2,-4.1440666E-2,-1.0869285E-3,1.7848752E-2,-1.634349E-2,4.65834E-2,-6.445175E-2,4.289709E-3,-3.1102305E-2,1.1602535E-3,3.809604E-2,-1.8921994E-2,7.4478306E-2,-5.5316888E-2,1.322663E-1,-3.7830144E-3,-7.647478E-2,3.2982975E-2,2.1869289E-2,-4.3261312E-2,-4.100855E-2,3.9701357E-2,3.113972E-3,-1.1317365E-2,6.673933E-2,-1.4964305E-3,-4.952245E-2,1.4511378E-2],"categories":[],"categories_nodes":[],"categories_segments":[],"categories_sizes":[],"default_left":[1,1,1,1,1,1,1,1,1,1,1,1,1,1,1,0,0,0,0,0,0,0,0,0,0,0,0,0,0,0,0],"id":24,"left_children":[1,3,5,7,9,11,13,15,17,19,21,23,25,27,29,-1,-1,-1,-1,-1,-1,-1,-1,-1,-1,-1,-1,-1,-1,-1,-1],"loss_changes":[7.3669E-1,1.6810284E0,1.4304492E0,6.428844E-1,1.2861941E0,2.733718E0,3.2951684E0,9.775192E-1,1.7137698E0,9.549198E-1,3.4367615E-1,1.9816761E0,9.192472E-1,3.2367024E0,1.6089946E0,0E0,0E0,0E0,0E0,0E0,0E0,0E0,0E0,0E0,0E0,0E0,0E0,0E0,0E0,0E0,0E0],"parents":[2147483647,0,0,1,1,2,2,3,3,4,4,5,5,6,6,7,7,8,8,9,9,10,10,11,11,12,12,13,13,14,14],"right_children":[2,4,6,8,10,12,14,16,18,20,22,24,26,28,30,-1,-1,-1,-1,-1,-1,-1,-1,-1,-1,-1,-1,-1,-1,-1,-1],"split_conditions":[6.5E0,9.4444446E-2,9.929546E-1,2.2091504E-2,3.3509803E-1,1.15E1,1.45E1,1.9409764E-3,2.7173046E-2,1.769082E-1,1.5756601E-1,8.9444447E-1,9.53697E-1,2.5845486E-1,2.4327365E-1,2.2343492E-2,-1.6595067E-2,3.9679892E-2,-1.1349043E-3,-2.2942435E-2,9.894893E-3,6.560787E-3,-1.29783945E-2,-1.2302565E-2,1.1910408E-2,9.3419163E-4,-3.3952096E-3,2.00218E-2,-4.4892918E-4,-1.4856735E-2,4.3534134E-3],"split_indices":[6,8,0,8,8,6,6,3,3,3,3,0,7,8,8,0,0,0,0,0,0,0,0,0,0,0,0,0,0,0,0],"split_type":[0,0,0,0,0,0,0,0,0,0,0,0,0,0,0,0,0,0,0,0,0,0,0,0,0,0,0,0,0,0,0],"sum_hessian":[4.6843E4,1.891E3,4.4952E4,6.7E2,1.221E3,4.0528E4,4.424E3,2.74E2,3.96E2,8.12E2,4.09E2,2.822E3,3.7706E4,2.853E3,1.571E3,8.2E1,1.92E2,1.46E2,2.5E2,7.23E2,8.9E1,2.99E2,1.1E2,2.476E3,3.46E2,3.2602E4,5.104E3,1.655E3,1.198E3,8.2E2,7.51E2],"tree_param":{"num_deleted":"0","num_feature":"9","num_nodes":"31","size_leaf_vector":"0"}},{"base_weights":[-2.4932562E-5,-1.1760772E-1,1.0825074E-4,-1.7668805E-1,-1.1290795E-2,6.564148E-3,-1.8864201E-3,-9.0329796E-2,-2.3262233E-1,-4.5916833E-2,2.7926924E-2,1.8031819E-2,-3.4865187E-3,-4.337287E-2,-5.086797E-4,-2.0361906E-1,3.42507E-2,6.1926744E-3,-2.5950137E-1,4.171834E-3,-5.1342882E-2,4.6389487E-2,7.886969E-3,-4.3036207E-3,3.5336155E-2,-3.1143712E-2,6.2670484E-3,-3.5483725E-2,-2.7951455E-1,-2.9748308E-3,6.7807203E-3],"categories":[],"categories_nodes":[],"categories_segments":[],"categories_sizes":[],"default_left":[1,1,1,1,1,1,1,1,1,1,1,1,1,1,1,0,0,0,0,0,0,0,0,0,0,0,0,0,0,0,0],"id":25,"left_children":[1,3,5,7,9,11,13,15,17,19,21,23,25,27,29,-1,-1,-1,-1,-1,-1,-1,-1,-1,-1,-1,-1,-1,-1,-1,-1],"loss_changes":[7.335927E-1,3.3091074E-1,6.025712E-1,1.432203E-1,2.84414E-2,1.2730844E0,2.043246E0,2.186786E-1,1.2998927E-1,3.203813E-3,3.3340165E-3,1.9941057E0,1.5882504E0,2.1306176E0,6.2201613E-1,0E0,0E0,0E0,0E0,0E0,0E0,0E0,0E0,0E0,0E0,0E0,0E0,0E0,0E0,0E0,0E0],"parents":[2147483647,0,0,1,1,2,2,3,3,4,4,5,5,6,6,7,7,8,8,9,9,10,10,11,11,12,12,13,13,14,14],"right_children":[2,4,6,8,10,12,14,16,18,20,22,24,26,28,30,-1,-1,-1,-1,-1,-1,-1,-1,-1,-1,-1,-1,-1,-1,-1,-1],"split_conditions":[1.1094809E-3,2.5691366E-1,3.1485415E-1,6.5E0,3.6862746E-1,3.6526203E-1,1.2386802E-1,1.8782064E-2,6.125E-1,7.1794873E-1,1.0777439E-1,2.034786E-2,5.2863204E-1,1.2198007E-1,7.811359E-1,-6.108572E-2,1.027521E-2,1.8578024E-3,-7.785042E-2,1.2515502E-3,-1.5402866E-2,1.3916846E-2,2.3660907E-3,-1.2910862E-3,1.0600847E-2,-9.343114E-3,1.8801145E-3,-1.0645118E-2,-8.385437E-2,-8.924493E-4,2.0342162E-3],"split_indices":[7,8,4,6,8,7,7,3,0,0,3,3,7,7,0,0,0,0,0,0,0,0,0,0,0,0,0,0,0,0,0],"split_type":[0,0,0,0,0,0,0,0,0,0,0,0,0,0,0,0,0,0,0,0,0,0,0,0,0,0,0,0,0,0,0],"sum_hessian":[4.6843E4,5.2E1,4.6791E4,3.3E1,1.9E1,1.1044E4,3.5747E4,1.4E1,1.9E1,1E1,9E0,5.158E3,5.886E3,1.148E3,3.4599E4,7E0,7E0,2E0,1.7E1,1E0,9E0,4E0,5E0,2.252E3,2.906E3,1.534E3,4.352E3,1.112E3,3.6E1,2.5853E4,8.746E3],"tree_param":{"num_deleted":"0","num_feature":"9","num_nodes":"31","size_leaf_vector":"0"}},{"base_weights":[-2.206763E-5,-1.24784075E-2,9.3085034E-4,-8.4427826E-2,-5.4027466E-3,2.1455115E-2,-2.6294836E-4,-1.3189463E-1,-2.122018E-2,-1.1575117E-3,-5.263909E-2,4.2731263E-2,-1.8269066E-2,-2.8165823E-2,5.282629E-4,-6.1363995E-2,-2.000715E-1,1.2011461E-1,-3.5413377E-2,-1.5587229E-2,2.6656188E-2,3.1966174E-3,-2.4175292E-1,9.581537E-2,1.1065262E-2,-1.0779331E-2,-2.4200708E-1,-9.780891E-2,-7.953148E-3,5.7547176E-3,-2.1941008E-3],"categories":[],"categories_nodes":[],"categories_segments":[],"categories_sizes":[],"default_left":[1,1,1,1,1,1,1,1,1,1,1,1,1,1,1,0,0,0,0,0,0,0,0,0,0,0,0,0,0,0,0],"id":26,"left_children":[1,3,5,7,9,11,13,15,17,19,21,23,25,27,29,-1,-1,-1,-1,-1,-1,-1,-1,-1,-1,-1,-1,-1,-1,-1,-1],"loss_changes":[5.560438E-1,1.6943033E0,1.0662278E0,8.912802E-1,6.0794413E-1,2.0224454E0,9.0793437E-1,8.051777E-1,2.630267E-1,1.1173553E0,2.6405993E0,2.6178772E0,1.3966328E0,1.595523E0,5.690312E-1,0E0,0E0,0E0,0E0,0E0,0E0,0E0,0E0,0E0,0E0,0E0,0E0,0E0,0E0,0E0,0E0],"parents":[2147483647,0,0,1,1,2,2,3,3,4,4,5,5,6,6,7,7,8,8,9,9,10,10,11,11,12,12,13,13,14,14],"right_children":[2,4,6,8,10,12,14,16,18,20,22,24,26,28,30,-1,-1,-1,-1,-1,-1,-1,-1,-1,-1,-1,-1,-1,-1,-1,-1],"split_conditions":[7.855049E-2,7.0185184E-1,1.8618198E-1,1.8292458E-1,2.4999999E-2,3.2422757E-1,2.3598254E-1,8.26546E-2,2.0679343E-1,1.05E1,6.853935E-2,5E-3,4.4349647E-1,6.195238E-1,9.85932E-1,-1.84092E-2,-6.0021453E-2,3.6034383E-2,-1.0624014E-2,-4.676169E-3,7.996857E-3,9.5898524E-4,-7.252588E-2,2.8744612E-2,3.319579E-3,-3.2337995E-3,-7.260212E-2,-2.9342676E-2,-2.3859446E-3,1.7264154E-3,-6.582303E-4],"split_indices":[7,0,7,8,5,4,7,8,8,6,8,5,4,0,2,0,0,0,0,0,0,0,0,0,0,0,0,0,0,0,0],"split_type":[0,0,0,0,0,0,0,0,0,0,0,0,0,0,0,0,0,0,0,0,0,0,0,0,0,0,0,0,0,0,0],"sum_hessian":[4.6843E4,3.328E3,4.3515E4,2.97E2,3.031E3,2.391E3,4.1124E4,1.69E2,1.28E2,2.782E3,2.49E2,1.557E3,8.34E2,1.133E3,3.9991E4,8.4E1,8.5E1,1.1E1,1.17E2,1.832E3,9.5E2,1.93E2,5.6E1,5.81E2,9.76E2,8.08E2,2.6E1,2.54E2,8.79E2,1.3696E4,2.6295E4],"tree_param":{"num_deleted":"0","num_feature":"9","num_nodes":"31","size_leaf_vector":"0"}},{"base_weights":[-1.9623347E-5,7.5687584E-4,-1.4218458E-2,-2.2221751E-4,3.510486E-2,-1.8327743E-1,-7.934911E-3,-3.0282022E-2,1.0563727E-3,7.9363964E-2,-3.9508197E-2,1.0872567E-1,-2.0624958E-1,1.19757205E-1,-9.030397E-3,-1.1629155E-1,-7.5710625E-3,2.2225534E-3,-2.340676E-2,9.968732E-2,-7.404498E-2,-1.2908262E-1,-2.111471E-2,1.17790654E-1,2.7167864E-2,-1.8428104E-1,-4.1216275E-1,2.8964034E-1,-1.7127255E-1,-7.398364E-2,-4.9592704E-3],"categories":[],"categories_nodes":[],"categories_segments":[],"categories_sizes":[],"default_left":[1,1,1,1,1,1,1,1,1,1,1,1,1,1,1,0,0,0,0,0,0,0,0,0,0,0,0,0,0,0,0],"id":27,"left_children":[1,3,5,7,9,11,13,15,17,19,21,23,25,27,29,-1,-1,-1,-1,-1,-1,-1,-1,-1,-1,-1,-1,-1,-1,-1,-1],"loss_changes":[5.1648384E-1,1.4937128E0,2.5788481E0,1.65985E0,4.068276E0,6.0601544E-1,3.2883155E-1,3.440938E0,1.1818424E0,2.417428E0,7.535164E-1,1.975119E-3,2.9045892E-1,1.0384284E0,6.1417496E-1,0E0,0E0,0E0,0E0,0E0,0E0,0E0,0E0,0E0,0E0,0E0,0E0,0E0,0E0,0E0,0E0],"parents":[2147483647,0,0,1,1,2,2,3,3,4,4,5,5,6,6,7,7,8,8,9,9,10,10,11,11,12,12,13,13,14,14],"right_children":[2,4,6,8,10,12,14,16,18,20,22,24,26,28,30,-1,-1,-1,-1,-1,-1,-1,-1,-1,-1,-1,-1,-1,-1,-1,-1],"split_conditions":[9.51E2,3.05E-1,1.6142175E-1,3.3767778E-1,1.3836937E-1,6.3109666E-2,1.9421688E-1,9.65E1,4.165E2,5.449103E-1,6.821413E-1,4.711916E-1,9.4793904E-1,8.74118E-2,6.882418E-2,-3.4887467E-2,-2.2713188E-3,6.66766E-4,-7.0220283E-3,2.9906198E-2,-2.2213494E-2,-3.8724788E-2,-6.3344133E-3,3.53372E-2,8.15036E-3,-5.5284314E-2,-1.2364883E-1,8.6892106E-2,-5.1381767E-2,-2.2195093E-2,-1.4877812E-3],"split_indices":[6,5,8,0,3,8,8,6,6,8,2,0,7,3,3,0,0,0,0,0,0,0,0,0,0,0,0,0,0,0,0],"split_type":[0,0,0,0,0,0,0,0,0,0,0,0,0,0,0,0,0,0,0,0,0,0,0,0,0,0,0,0,0,0,0],"sum_hessian":[4.6843E4,4.4415E4,2.428E3,4.3185E4,1.23E3,8.6E1,2.342E3,1.761E3,4.1424E4,7.72E2,4.58E2,6E0,8E1,1.9E1,2.323E3,3.67E2,1.394E3,3.954E4,1.884E3,6.82E2,9E1,7.7E1,3.81E2,5E0,1E0,7.4E1,6E0,1.2E1,7E0,1.36E2,2.187E3],"tree_param":{"num_deleted":"0","num_feature":"9","num_nodes":"31","size_leaf_vector":"0"}},{"base_weights":[-1.8094837E-5,2.3359256E-3,-3.972299E-3,-1.6745735E-3,1.1984203E-2,-1.9515023E-2,5.6677274E-3,-4.0642116E-2,9.2835406E-5,4.4275742E-2,-3.768068E-3,9.735336E-3,-4.5266952E-2,5.1304386E-3,2.947414E-1,-9.531261E-2,1.5415298E-3,1.3773196E-3,-4.8409164E-2,1.4305219E-1,1.4244411E-2,-6.564473E-2,1.5784295E-3,2.4382113E-2,-4.6603017E-2,-9.006113E-3,-1.1901747E-1,2.214048E-2,-1.6999182E-3,6.400828E-2,3.8905498E-1],"categories":[],"categories_nodes":[],"categories_segments":[],"categories_sizes":[],"default_left":[1,1,1,1,1,1,1,1,1,1,1,1,1,1,1,0,0,0,0,0,0,0,0,0,0,0,0,0,0,0,0],"id":28,"left_children":[1,3,5,7,9,11,13,15,17,19,21,23,25,27,29,-1,-1,-1,-1,-1,-1,-1,-1,-1,-1,-1,-1,-1,-1,-1,-1],"loss_changes":[4.360462E-1,1.1362427E0,2.6193287E0,1.4286071E0,4.385877E0,5.04121E0,1.6743491E0,2.0757277E0,1.2363487E0,8.383942E0,1.9175564E0,2.5872355E0,9.516602E0,1.2514626E0,4.1032267E-1,0E0,0E0,0E0,0E0,0E0,0E0,0E0,0E0,0E0,0E0,0E0,0E0,0E0,0E0,0E0,0E0],"parents":[2147483647,0,0,1,1,2,2,3,3,4,4,5,5,6,6,7,7,8,8,9,9,10,10,11,11,12,12,13,13,14,14],"right_children":[2,4,6,8,10,12,14,16,18,20,22,24,26,28,30,-1,-1,-1,-1,-1,-1,-1,-1,-1,-1,-1,-1,-1,-1,-1,-1],"split_conditions":[7.448195E-1,5.64767E-1,3.0306816E-1,4.0827012E-1,1.6635361E-1,9.579795E-1,3.4811485E-1,2.4999999E-2,2.095E2,5E-3,2.2217107E-1,9.472777E-2,9.95E1,4.76459E-1,9.2630804E-1,-2.8593784E-2,4.6245896E-4,4.131959E-4,-1.452275E-2,4.2915657E-2,4.2733233E-3,-1.9693421E-2,4.7352887E-4,7.314634E-3,-1.39809055E-2,-2.7018338E-3,-3.5705242E-2,6.6421446E-3,-5.099755E-4,1.9202486E-2,1.167165E-1],"split_indices":[7,7,8,0,8,2,3,5,6,5,8,3,6,8,7,0,0,0,0,0,0,0,0,0,0,0,0,0,0,0,0],"split_type":[0,0,0,0,0,0,0,0,0,0,0,0,0,0,0,0,0,0,0,0,0,0,0,0,0,0,0,0,0,0,0],"sum_hessian":[4.6843E4,2.9363E4,1.748E4,2.0742E4,8.621E3,6.691E3,1.0789E4,8.99E2,1.9843E4,2.826E3,5.795E3,3.133E3,3.558E3,1.077E4,1.9E1,3.91E2,5.08E2,1.9332E4,5.11E2,6.58E2,2.168E3,4.6E2,5.335E3,2.487E3,6.46E2,2.386E3,1.172E3,3.085E3,7.685E3,6E0,1.3E1],"tree_param":{"num_deleted":"0","num_feature":"9","num_nodes":"31","size_leaf_vector":"0"}},{"base_weights":[-1.0897479E-5,-1.0249968E-2,1.1934119E-3,-1.7364882E-2,2.1802405E-2,-3.618502E-3,4.6314565E-3,1.3280637E-2,-3.4357246E-2,-2.5075346E-1,3.449836E-2,-3.480159E-2,5.5765132E-3,2.054952E-2,-3.063231E-3,-1.737367E-2,4.6533097E-2,-5.681448E-2,7.595888E-3,1.9380087E-1,-3.3490425E-1,1.1914245E-1,8.550167E-3,-4.927367E-2,-5.2895504E-3,1.6912814E-2,-7.288919E-3,5.018456E-2,-8.80933E-3,-1.8389987E-2,8.360753E-3],"categories":[],"categories_nodes":[],"categories_segments":[],"categories_sizes":[],"default_left":[1,1,1,1,1,1,1,1,1,1,1,1,1,1,1,0,0,0,0,0,0,0,0,0,0,0,0,0,0,0,0],"id":29,"left_children":[1,3,5,7,9,11,13,15,17,19,21,23,25,27,29,-1,-1,-1,-1,-1,-1,-1,-1,-1,-1,-1,-1,-1,-1,-1,-1],"loss_changes":[5.77646E-1,1.1246643E0,6.934407E-1,2.1016417E0,3.10913E0,5.008776E0,2.9945645E0,1.4686452E0,2.446256E0,1.5612886E0,1.8812627E0,1.6987453E0,1.9677372E0,6.9321356E0,2.8860302E0,0E0,0E0,0E0,0E0,0E0,0E0,0E0,0E0,0E0,0E0,0E0,0E0,0E0,0E0,0E0,0E0],"parents":[2147483647,0,0,1,1,2,2,3,3,4,4,5,5,6,6,7,7,8,8,9,9,10,10,11,11,12,12,13,13,14,14],"right_children":[2,4,6,8,10,12,14,16,18,20,22,24,26,28,30,-1,-1,-1,-1,-1,-1,-1,-1,-1,-1,-1,-1,-1,-1,-1,-1],"split_conditions":[9.5E0,1.4365262E-1,5.5949163E-1,8.722689E-2,1.2706584E-1,1.5E-2,5E-3,3.286648E-2,3.1742918E-1,1.5271997E-1,2.0756303E-1,3.3653778E-1,1.2792169E-1,2.0178056E-1,2.0642984E-1,-5.212101E-3,1.3959929E-2,-1.7044345E-2,2.2787664E-3,5.8140263E-2,-1.0047128E-1,3.5742737E-2,2.5650503E-3,-1.4782102E-2,-1.5868652E-3,5.0738445E-3,-2.1866758E-3,1.5055369E-2,-2.6427992E-3,-5.516996E-3,2.5082259E-3],"split_indices":[6,3,0,8,8,5,5,8,8,3,8,8,3,8,8,0,0,0,0,0,0,0,0,0,0,0,0,0,0,0,0],"split_type":[0,0,0,0,0,0,0,0,0,0,0,0,0,0,0,0,0,0,0,0,0,0,0,0,0,0,0,0,0,0,0],"sum_hessian":[4.6843E4,4.929E3,4.1914E4,4.034E3,8.95E2,1.7467E4,2.4447E4,1.439E3,2.595E3,3.9E1,8.56E2,3.977E3,1.349E4,7.966E3,1.6481E4,7.49E2,6.9E2,1.69E3,9.05E2,6E0,3.3E1,2E2,6.56E2,2.668E3,1.309E3,7.171E3,6.319E3,3.964E3,4.002E3,7.038E3,9.443E3],"tree_param":{"num_deleted":"0","num_feature":"9","num_nodes":"31","size_leaf_vector":"0"}},{"base_weights":[-7.925656E-6,3.3113554E-3,-3.5554399E-3,-2.9357987E-2,6.0849087E-3,-3.170766E-2,1.0389278E-3,2.9382452E-2,-4.297371E-2,1.2739864E-2,-6.839655E-3,-7.2100796E-2,1.5545003E-2,3.7249725E-3,-5.2994814E-2,-1.1936861E-1,4.1427456E-2,-7.883912E-2,-9.091843E-3,2.2033773E-2,-1.6809624E-2,-3.9753865E-2,2.0109355E-3,-5.7117026E-2,-2.0776455E-1,6.948341E-3,1.1012179E-1,-2.5938498E-3,1.3181865E-2,-2.253495E-1,-3.091999E-3],"categories":[],"categories_nodes":[],"categories_segments":[],"categories_sizes":[],"default_left":[1,1,1,1,1,1,1,1,1,1,1,1,1,1,1,0,0,0,0,0,0,0,0,0,0,0,0,0,0,0,0],"id":30,"left_children":[1,3,5,7,9,11,13,15,17,19,21,23,25,27,29,-1,-1,-1,-1,-1,-1,-1,-1,-1,-1,-1,-1,-1,-1,-1,-1],"loss_changes":[5.516091E-1,2.1930351E0,2.9288454E0,1.5160712E0,1.9188516E0,6.065007E0,2.8257253E0,6.4458454E-1,1.8682413E0,4.0445757E0,2.2090852E0,3.4702406E0,1.1903453E0,1.1083367E0,7.9294105E0,0E0,0E0,0E0,0E0,0E0,0E0,0E0,0E0,0E0,0E0,0E0,0E0,0E0,0E0,0E0,0E0],"parents":[2147483647,0,0,1,1,2,2,3,3,4,4,5,5,6,6,7,7,8,8,9,9,10,10,11,11,12,12,13,13,14,14],"right_children":[2,4,6,8,10,12,14,16,18,20,22,24,26,28,30,-1,-1,-1,-1,-1,-1,-1,-1,-1,-1,-1,-1,-1,-1,-1,-1],"split_conditions":[9.182712E-1,2.25E1,6.945906E-1,8.02521E-2,5.0393593E-1,3.153506E-1,8.5E-2,1.72535E-1,1.566429E-1,1.530945E-1,1.15318984E-1,9.5E-2,7.6360816E-1,1.00555494E-1,2.0450199E-1,-3.5810586E-2,1.2428237E-2,-2.3651738E-2,-2.727553E-3,6.6101323E-3,-5.0428873E-3,-1.192616E-2,6.0328067E-4,-1.7135108E-2,-6.2329367E-2,2.0845025E-3,3.3036537E-2,-7.78155E-4,3.9545596E-3,-6.7604855E-2,-9.275998E-4],"split_indices":[1,6,0,8,8,8,5,7,8,3,3,5,8,3,8,0,0,0,0,0,0,0,0,0,0,0,0,0,0,0,0],"split_type":[0,0,0,0,0,0,0,0,0,0,0,0,0,0,0,0,0,0,0,0,0,0,0,0,0,0,0,0,0,0,0],"sum_hessian":[4.6843E4,2.42E4,2.2643E4,1.893E3,2.2307E4,3.176E3,1.9467E4,3.56E2,1.537E3,1.4725E4,7.582E3,1.712E3,1.464E3,1.8546E4,9.21E2,2.6E1,3.3E2,7.46E2,7.91E2,1.1202E4,3.523E3,1.606E3,5.976E3,1.543E3,1.69E2,1.343E3,1.21E2,1.1118E4,7.428E3,2.06E2,7.15E2],"tree_param":{"num_deleted":"0","num_feature":"9","num_nodes":"31","size_leaf_vector":"0"}},{"base_weights":[-9.163516E-6,-1.3817068E-2,7.617116E-4,-1.365373E-1,-8.7580765E-3,3.919123E-3,-3.328262E-3,7.2453246E-2,-1.722316E-1,-5.5011805E-2,2.4419695E-3,-1.9685313E-2,6.523057E-3,1.4300925E-3,-2.6241515E-2,1.1430823E-1,-7.122501E-2,-2.4597542E-1,-7.440007E-3,-1.942482E-2,-7.9618014E-2,2.1450084E-2,-5.0040126E-2,-3.505271E-2,1.4199716E-2,1.7057145E-2,-4.7527388E-4,-3.2307543E-2,4.6734647E-3,-8.242806E-2,5.293305E-3],"categories":[],"categories_nodes":[],"categories_segments":[],"categories_sizes":[],"default_left":[1,1,1,1,1,1,1,1,1,1,1,1,1,1,1,0,0,0,0,0,0,0,0,0,0,0,0,0,0,0,0],"id":31,"left_children":[1,3,5,7,9,11,13,15,17,19,21,23,25,27,29,-1,-1,-1,-1,-1,-1,-1,-1,-1,-1,-1,-1,-1,-1,-1,-1],"loss_changes":[4.9862608E-1,1.5366263E0,5.7296944E-1,7.435365E-1,1.2330787E0,1.5391355E0,2.1075754E0,9.8346375E-2,1.0189681E0,4.0476E-1,1.9134451E0,1.2960608E0,1.662565E0,1.7516963E0,5.890008E0,0E0,0E0,0E0,0E0,0E0,0E0,0E0,0E0,0E0,0E0,0E0,0E0,0E0,0E0,0E0,0E0],"parents":[2147483647,0,0,1,1,2,2,3,3,4,4,5,5,6,6,7,7,8,8,9,9,10,10,11,11,12,12,13,13,14,14],"right_children":[2,4,6,8,10,12,14,16,18,20,22,24,26,28,30,-1,-1,-1,-1,-1,-1,-1,-1,-1,-1,-1,-1,-1,-1,-1,-1],"split_conditions":[7.65763E-1,7.15E1,9.6765894E-1,5.5503685E-2,3.7903436E-2,2.25E1,3.5E-2,8.962955E-1,2.0718004E-1,9.083036E-2,1.3971537E-1,3.8046932E-1,9.906758E-2,7.0479304E-1,2.2569333E-1,3.429247E-2,-2.1367503E-2,-7.379263E-2,-2.232002E-3,-5.8274465E-3,-2.3885405E-2,6.4350255E-3,-1.5012038E-2,-1.0515813E-2,4.259915E-3,5.1171435E-3,-1.4258217E-4,-9.692263E-3,1.4020394E-3,-2.472842E-2,1.5879916E-3],"split_indices":[2,6,1,3,3,6,5,7,8,8,3,4,3,0,8,0,0,0,0,0,0,0,0,0,0,0,0,0,0,0,0],"split_type":[0,0,0,0,0,0,0,0,0,0,0,0,0,0,0,0,0,0,0,0,0,0,0,0,0,0,0,0,0,0,0],"sum_hessian":[4.6843E4,2.476E3,4.4367E4,9.7E1,2.379E3,2.5038E4,1.9329E4,1.4E1,8.3E1,4.63E2,1.916E3,2.487E3,2.2551E4,1.6006E4,3.323E3,1.1E1,3E0,5.7E1,2.6E1,1.9E2,2.73E2,1.407E3,5.09E2,1.711E3,7.76E2,9.001E3,1.355E4,1.403E3,1.4603E4,1.194E3,2.129E3],"tree_param":{"num_deleted":"0","num_feature":"9","num_nodes":"31","size_leaf_vector":"0"}},{"base_weights":[-9.275234E-6,-8.104929E-3,1.163839E-3,-3.2199178E-2,1.6763554E-3,-3.259401E-3,5.3229467E-3,-5.0409753E-2,2.289287E-2,1.582984E-2,-1.608637E-2,-2.8766364E-2,6.600985E-5,2.3565823E-2,-2.4751504E-3,-1.9891388E-3,-8.452602E-2,5.342763E-2,6.780359E-3,5.3612553E-3,1.288531E-1,-2.3742491E-2,4.5239937E-2,-4.833985E-2,8.746648E-3,-3.0803127E-2,3.378145E-3,5.515043E-2,-5.955832E-3,7.1664634E-3,-1.2528321E-2],"categories":[],"categories_nodes":[],"categories_segments":[],"categories_sizes":[],"default_left":[1,1,1,1,1,1,1,1,1,1,1,1,1,1,1,0,0,0,0,0,0,0,0,0,0,0,0,0,0,0,0],"id":32,"left_children":[1,3,5,7,9,11,13,15,17,19,21,23,25,27,29,-1,-1,-1,-1,-1,-1,-1,-1,-1,-1,-1,-1,-1,-1,-1,-1],"loss_changes":[4.4489282E-1,1.3973575E0,7.52738E-1,1.7187314E0,1.0606786E0,1.6819202E0,3.0000315E0,2.1258667E0,2.0922619E-1,2.7774475E0,8.795491E-1,1.6796764E0,1.7937487E0,5.888623E0,1.4321157E0,0E0,0E0,0E0,0E0,0E0,0E0,0E0,0E0,0E0,0E0,0E0,0E0,0E0,0E0,0E0,0E0],"parents":[2147483647,0,0,1,1,2,2,3,3,4,4,5,5,6,6,7,7,8,8,9,9,10,10,11,11,12,12,13,13,14,14],"right_children":[2,4,6,8,10,12,14,16,18,20,22,24,26,28,30,-1,-1,-1,-1,-1,-1,-1,-1,-1,-1,-1,-1,-1,-1,-1,-1],"split_conditions":[1.05E1,8.819444E-1,5.925492E-1,3.0242375E-1,1.9315282E-1,2.55E1,5E-3,7.818627E-2,7.638889E-1,1.4365262E-1,2.0969194E-1,3.7199396E-1,7.558575E-2,2.0178056E-1,9.8078597E-1,-5.967417E-4,-2.5357807E-2,1.6028289E-2,2.0341077E-3,1.6083766E-3,3.865593E-2,-7.1227476E-3,1.3571981E-2,-1.4501956E-2,2.6239946E-3,-9.240938E-3,1.0134436E-3,1.654513E-2,-1.7867497E-3,2.149939E-3,-3.7584964E-3],"split_indices":[6,0,0,8,8,6,5,8,0,3,3,4,8,8,1,0,0,0,0,0,0,0,0,0,0,0,0,0,0,0,0],"split_type":[0,0,0,0,0,0,0,0,0,0,0,0,0,0,0,0,0,0,0,0,0,0,0,0,0,0,0,0,0,0,0],"sum_hessian":[4.6843E4,5.928E3,4.0915E4,1.711E3,4.217E3,1.9828E4,2.1087E4,1.286E3,4.25E2,2.347E3,1.87E3,2.286E3,1.7542E4,6.314E3,1.4773E4,5.32E2,7.54E2,1.46E2,2.79E2,2.149E3,1.98E2,1.663E3,2.07E2,1.502E3,7.84E2,1.699E3,1.5843E4,3.05E3,3.264E3,7.541E3,7.232E3],"tree_param":{"num_deleted":"0","num_feature":"9","num_nodes":"31","size_leaf_vector":"0"}},{"base_weights":[-5.8105725E-6,2.7096653E-3,-3.8144123E-3,4.7257924E-3,-1.3258473E-2,-1.5268442E-2,2.7899297E-3,1.3198726E-2,-1.3134027E-3,-7.244824E-2,-5.0083175E-3,-8.190506E-3,-5.257447E-2,2.519054E-3,1.8850075E-1,3.3576833E-3,3.0812232E-2,-7.116832E-3,1.9792303E-2,-2.686209E-1,-5.8867007E-2,3.707708E-2,-1.3972905E-2,-2.9981334E-2,1.2262114E-3,6.116509E-2,-6.757426E-2,-1.4500305E-2,5.0151614E-3,-2.3084462E-2,2.5060257E-1],"categories":[],"categories_nodes":[],"categories_segments":[],"categories_sizes":[],"default_left":[1,1,1,1,1,1,1,1,1,1,1,1,1,1,1,0,0,0,0,0,0,0,0,0,0,0,0,0,0,0,0],"id":33,"left_children":[1,3,5,7,9,11,13,15,17,19,21,23,25,27,29,-1,-1,-1,-1,-1,-1,-1,-1,-1,-1,-1,-1,-1,-1,-1,-1],"loss_changes":[4.8447877E-1,8.804664E-1,1.4749948E0,1.2425199E0,1.496841E0,1.8825076E0,6.2169164E-1,1.7514492E0,1.7367398E0,9.8328686E-1,1.0161512E0,1.2301991E0,1.9439342E0,5.247697E-1,2.4230182E-1,0E0,0E0,0E0,0E0,0E0,0E0,0E0,0E0,0E0,0E0,0E0,0E0,0E0,0E0,0E0,0E0],"parents":[2147483647,0,0,1,1,2,2,3,3,4,4,5,5,6,6,7,7,8,8,9,9,10,10,11,11,12,12,13,13,14,14],"right_children":[2,4,6,8,10,12,14,16,18,20,22,24,26,28,30,-1,-1,-1,-1,-1,-1,-1,-1,-1,-1,-1,-1,-1,-1,-1,-1],"split_conditions":[7.037755E-1,2.1623415E-1,2.8055602E-1,9.8119104E-1,1.7835328E-1,9.533905E-1,3.624909E-1,6.0820615E-1,1.2644966E-1,1E-2,1.65E1,7.6856744E-1,8.75E1,8.733295E-2,2.5E-2,1.007305E-3,9.24367E-3,-2.1350496E-3,5.9376913E-3,-8.058628E-2,-1.7660104E-2,1.11231245E-2,-4.1918717E-3,-8.9944005E-3,3.6786345E-4,1.8349528E-2,-2.027228E-2,-4.350092E-3,1.5045485E-3,-6.925339E-3,7.518078E-2],"split_indices":[7,3,8,1,8,7,3,0,3,5,6,7,6,3,5,0,0,0,0,0,0,0,0,0,0,0,0,0,0,0,0],"split_type":[0,0,0,0,0,0,0,0,0,0,0,0,0,0,0,0,0,0,0,0,0,0,0,0,0,0,0,0,0,0,0],"sum_hessian":[4.6843E4,2.7346E4,1.9497E4,2.4281E4,3.065E3,7.13E3,1.2367E4,1.0104E4,1.4177E4,3.74E2,2.691E3,5.994E3,1.136E3,1.235E4,1.7E1,6.483E3,3.621E3,1.112E4,3.057E3,2.3E1,3.51E2,4.72E2,2.219E3,1.808E3,4.186E3,1.32E2,1.004E3,1.579E3,1.0771E4,4E0,1.3E1],"tree_param":{"num_deleted":"0","num_feature":"9","num_nodes":"31","size_leaf_vector":"0"}},{"base_weights":[-4.549444E-6,1.5327152E-3,-6.1372346E-3,-1.4215247E-2,2.3318212E-3,-3.9099667E-2,-1.9241468E-3,1.2552038E-2,-2.9971728E-2,-6.594018E-3,4.5060627E-3,-9.2196185E-3,-6.818651E-2,-7.664302E-2,-8.2215946E-4,1.5842063E-2,-2.6208913E-1,1.6437199E-3,-5.108196E-2,7.1494207E-3,-3.2347526E-2,9.681717E-3,-3.8759385E-3,-3.271324E-2,1.091478E-2,-7.328833E-2,1.0055735E-3,1.2560505E-1,-9.2073016E-2,-2.960211E-2,1.1328121E-3],"categories":[],"categories_nodes":[],"categories_segments":[],"categories_sizes":[],"default_left":[1,1,1,1,1,1,1,1,1,1,1,1,1,1,1,0,0,0,0,0,0,0,0,0,0,0,0,0,0,0,0],"id":34,"left_children":[1,3,5,7,9,11,13,15,17,19,21,23,25,27,29,-1,-1,-1,-1,-1,-1,-1,-1,-1,-1,-1,-1,-1,-1,-1,-1],"loss_changes":[4.41634E-1,4.7139034E-1,1.3038092E0,7.633368E-1,6.918479E-1,9.241109E-1,6.8549365E-1,6.10452E-1,7.6026344E-1,2.471807E0,1.2436355E0,2.4917081E-1,1.9034386E-1,3.8916802E-1,4.6173579E-1,0E0,0E0,0E0,0E0,0E0,0E0,0E0,0E0,0E0,0E0,0E0,0E0,0E0,0E0,0E0,0E0],"parents":[2147483647,0,0,1,1,2,2,3,3,4,4,5,5,6,6,7,7,8,8,9,9,10,10,11,11,12,12,13,13,14,14],"right_children":[2,4,6,8,10,12,14,16,18,20,22,24,26,28,30,-1,-1,-1,-1,-1,-1,-1,-1,-1,-1,-1,-1,-1,-1,-1,-1],"split_conditions":[6.036829E-1,6.5E0,6.240677E-2,9.4444446E-2,7.709905E-2,5E-3,4.7962058E-1,1.1091624E-1,2.0098493E-2,8.1881825E-3,7.378095E-1,3.429674E-1,4.125364E-1,1.585E2,3.4041253E-1,4.752619E-3,-7.8626744E-2,4.93116E-4,-1.5324588E-2,2.1448263E-3,-9.704258E-3,2.904515E-3,-1.1627816E-3,-9.813972E-3,3.2744342E-3,-2.19865E-2,3.016721E-4,3.7681516E-2,-2.7621906E-2,-8.880634E-3,3.3984365E-4],"split_indices":[8,6,3,8,8,5,1,3,7,3,7,4,4,6,7,0,0,0,0,0,0,0,0,0,0,0,0,0,0,0,0],"split_type":[0,0,0,0,0,0,0,0,0,0,0,0,0,0,0,0,0,0,0,0,0,0,0,0,0,0,0,0,0,0,0],"sum_hessian":[4.6843E4,3.7455E4,9.388E3,1.808E3,3.5647E4,1.063E3,8.325E3,6.7E2,1.138E3,6.982E3,2.8665E4,5.25E2,5.38E2,1.2E2,8.205E3,6.63E2,7E0,4.56E2,6.82E2,4.553E3,2.429E3,1.7722E4,1.0943E4,2.42E2,2.83E2,5.01E2,3.7E1,8E0,1.12E2,5.21E2,7.684E3],"tree_param":{"num_deleted":"0","num_feature":"9","num_nodes":"31","size_leaf_vector":"0"}},{"base_weights":[-5.7751126E-6,-4.3544602E-1,1.2816487E-5,-5.274568E-6,4.23717E-1,1.6405866E-4,-3.871864E-2,-7.384653E-2,2.4825375E-4,-2.471032E-1,-1.9669408E-2],"categories":[],"categories_nodes":[],"categories_segments":[],"categories_sizes":[],"default_left":[1,0,1,1,0,1,1,0,0,0,0],"id":35,"left_children":[1,-1,3,5,-1,7,9,-1,-1,-1,-1],"loss_changes":[3.7923262E-1,0E0,3.590658E-1,3.0707717E-1,0E0,2.9064128E-1,8.0493116E-1,0E0,0E0,0E0,0E0],"parents":[2147483647,0,0,2,2,3,3,5,5,6,6],"right_children":[2,-1,4,6,-1,8,10,-1,-1,-1,-1],"split_conditions":[1.5102236E-1,-1.3063382E-1,4.3658006E-1,4.6681714E-1,1.271151E-1,1.1094809E-3,1.7704729E-2,-2.2153959E-2,7.447613E-5,-7.413096E-2,-5.9008226E-3],"split_indices":[0,0,3,4,0,7,3,0,0,0,0],"split_type":[0,0,0,0,0,0,0,0,0,0,0],"sum_hessian":[4.6843E4,1E0,4.6842E4,4.6841E4,1E0,4.6638E4,2.03E2,5.2E1,4.6586E4,1.6E1,1.87E2],"tree_param":{"num_deleted":"0","num_feature":"9","num_nodes":"11","size_leaf_vector":"0"}},{"base_weights":[-6.306845E-6,-3.701291E-1,9.495984E-6,-5.55701E-3,1.0369311E-3,4.8407298E-3,-3.0477067E-2,1.0199393E-2,-1.1127659E-3,2.9493694E-3,1.1116547E-1,-1.5746881E-1,-8.984456E-3,-5.1988945E-3,2.5367226E-2,1.6640892E-2,-3.5919347E-3],"categories":[],"categories_nodes":[],"categories_segments":[],"categories_sizes":[],"default_left":[1,0,1,1,1,1,1,1,1,0,0,0,0,0,0,0,0],"id":36,"left_children":[1,-1,3,5,7,9,11,13,15,-1,-1,-1,-1,-1,-1,-1,-1],"loss_changes":[2.7399346E-1,0E0,2.6791131E-1,1.8914081E0,7.789101E-1,1.0355301E0,5.864032E0,1.7553251E0,1.4098823E0,0E0,0E0,0E0,0E0,0E0,0E0,0E0,0E0],"parents":[2147483647,0,0,2,2,3,3,4,4,5,5,6,6,7,7,8,8],"right_children":[2,-1,4,6,8,10,12,14,16,-1,-1,-1,-1,-1,-1,-1,-1],"split_conditions":[1.5102236E-1,-1.1103874E-1,1.9476475E-2,9.821303E-3,5.603869E-2,2.7034938E-1,5.470404E-2,1.2001489E-1,1.3507935E-1,8.8481087E-4,3.3349644E-2,-4.7240645E-2,-2.695337E-3,-1.5596685E-3,7.6101683E-3,4.992268E-3,-1.0775805E-3],"split_indices":[0,0,3,3,3,8,8,8,8,0,0,0,0,0,0,0,0],"split_type":[0,0,0,0,0,0,0,0,0,0,0,0,0,0,0,0,0],"sum_hessian":[4.6843E4,1E0,4.6842E4,7.298E3,3.9544E4,5.15E3,2.148E3,7.514E3,3.203E4,5.061E3,8.9E1,3.1E2,1.838E3,3.729E3,3.785E3,3.924E3,2.8106E4],"tree_param":{"num_deleted":"0","num_feature":"9","num_nodes":"17","size_leaf_vector":"0"}},{"base_weights":[-6.906123E-6,-2.2306574E-5,3.6069822E-1,-7.7513326E-3,6.453955E-4,-6.479693E-3,-1.6415894E-1,1.7957227E-2,-1.0058721E-5,-4.664057E-2,-2.5677765E-3,-3.168089E-1,-5.9108492E-2,-4.27237E-3,4.753715E-2,-1.5860235E-2,6.070485E-4],"categories":[],"categories_nodes":[],"categories_segments":[],"categories_sizes":[],"default_left":[1,1,0,1,1,1,1,1,1,0,0,0,0,0,0,0,0],"id":37,"left_children":[1,3,-1,5,7,9,11,13,15,-1,-1,-1,-1,-1,-1,-1,-1],"loss_changes":[2.602275E-1,2.4174705E-1,0E0,7.398168E-1,4.8927632E-1,5.8054405E-1,4.6235228E-1,1.0345291E0,4.0639156E-1,0E0,0E0,0E0,0E0,0E0,0E0,0E0,0E0],"parents":[2147483647,0,0,1,1,3,3,4,4,5,5,6,6,7,7,8,8],"right_children":[2,4,-1,6,8,10,12,14,16,-1,-1,-1,-1,-1,-1,-1,-1],"split_conditions":[4.3658006E-1,1.02164984E-1,1.0820947E-1,4.6993953E-1,1.6804598E-1,6.9504833E-1,1.1582633E-1,4.745023E-2,2.3598254E-1,-1.3992172E-2,-7.70333E-4,-9.5042676E-2,-1.7732548E-2,-1.281711E-3,1.4261146E-2,-4.7580707E-3,1.8211456E-4],"split_indices":[3,7,0,4,7,0,8,3,7,0,0,0,0,0,0,0,0],"split_type":[0,0,0,0,0,0,0,0,0,0,0,0,0,0,0,0,0],"sum_hessian":[4.6843E4,4.6842E4,1E0,3.724E3,4.3118E4,3.695E3,2.9E1,1.572E3,4.1546E4,3.27E2,3.368E3,1.1E1,1.8E1,8.98E2,6.74E2,1.556E3,3.999E4],"tree_param":{"num_deleted":"0","num_feature":"9","num_nodes":"17","size_leaf_vector":"0"}},{"base_weights":[-5.0662766E-6,7.763339E-4,-6.0900487E-3,-5.3329865E-4,6.6526146E-3,-3.291826E-2,-3.2257136E-5,1.1032796E-3,-4.414208E-2,-2.8822532E-2,1.5532025E-2,-8.744212E-3,-4.720478E-2,4.741214E-1,-4.6855398E-4,-2.3917904E-2,3.5584236E-3,-1.300832E-1,3.5018607E-3,-1.5912548E-2,-2.4582684E-1,5.6578204E-2,1.004943E-3,1.5852928E-2,-2.3701485E-2,-5.3467967E-2,3.557413E-2,6.228767E-1,1.3927703E-2,-9.3886554E-2,6.4030953E-4],"categories":[],"categories_nodes":[],"categories_segments":[],"categories_sizes":[],"default_left":[1,1,1,1,1,1,1,1,1,1,1,1,1,1,1,0,0,0,0,0,0,0,0,0,0,0,0,0,0,0,0],"id":38,"left_children":[1,3,5,7,9,11,13,15,17,19,21,23,25,27,29,-1,-1,-1,-1,-1,-1,-1,-1,-1,-1,-1,-1,-1,-1,-1,-1],"loss_changes":[2.2273888E-1,3.194857E-1,8.6639154E-1,2.422961E0,2.3837256E0,3.387338E-1,9.001142E-1,2.0102177E0,5.028591E0,4.240395E0,3.6086369E0,1.3502939E-1,3.2179165E-1,2.6514977E-1,4.503563E-1,0E0,0E0,0E0,0E0,0E0,0E0,0E0,0E0,0E0,0E0,0E0,0E0,0E0,0E0,0E0,0E0],"parents":[2147483647,0,0,1,1,2,2,3,3,4,4,5,5,6,6,7,7,8,8,9,9,10,10,11,11,12,12,13,13,14,14],"right_children":[2,4,6,8,10,12,14,16,18,20,22,24,26,28,30,-1,-1,-1,-1,-1,-1,-1,-1,-1,-1,-1,-1,-1,-1,-1,-1],"split_conditions":[6.8581223E-1,1.4500001E-1,6.758367E-2,2.105E2,1.4977482E-1,2.15E1,6.769571E-2,4.2991227E-1,2.80438E-1,9.5081076E-2,1.0744069E-1,1.5288197E-1,4.1127038E-1,8.118162E-1,6.9790864E-1,-7.1753715E-3,1.0675271E-3,-3.9024964E-2,1.0505583E-3,-4.7737644E-3,-7.374805E-2,1.6973462E-2,3.014829E-4,4.755879E-3,-7.1104458E-3,-1.604039E-2,1.067224E-2,1.8686302E-1,4.178311E-3,-2.8165968E-2,1.9209286E-4],"split_indices":[8,5,3,6,8,6,3,0,8,3,3,7,4,0,2,0,0,0,0,0,0,0,0,0,0,0,0,0,0,0,0],"split_type":[0,0,0,0,0,0,0,0,0,0,0,0,0,0,0,0,0,0,0,0,0,0,0,0,0,0,0,0,0,0,0],"sum_hessian":[4.6843E4,4.1513E4,5.33E3,3.3948E4,7.565E3,9.81E2,4.349E3,3.2721E4,1.227E3,1.514E3,6.051E3,3.65E2,6.16E2,3E0,4.346E3,2.923E3,2.9798E4,4.37E2,7.9E2,1.43E3,8.4E1,1.581E3,4.47E3,1.38E2,2.27E2,5.73E2,4.3E1,2E0,1E0,5E1,4.296E3],"tree_param":{"num_deleted":"0","num_feature":"9","num_nodes":"31","size_leaf_vector":"0"}},{"base_weights":[-2.477558E-6,3.4590662E-3,-1.8871477E-3,-2.607746E-3,4.4122636E-2,-9.180933E-3,5.802947E-3,-1.8097315E-3,-7.626725E-2,7.173039E-2,-1.15218334E-1,-1.612065E-2,3.2738356E-3,2.4307838E-2,-6.852121E-4,-6.3386904E-3,7.005503E-3,-1.0033133E-2,-2.0599507E-1,8.197993E-2,-2.2153857E-1,-5.378664E-2,-3.4803E-1,-4.9262878E-2,-8.210831E-3,3.327583E-2,-7.4984115E-3,5.962722E-2,-8.535246E-3,-1.1942919E-1,3.5203688E-3],"categories":[],"categories_nodes":[],"categories_segments":[],"categories_sizes":[],"default_left":[1,1,1,1,1,1,1,1,1,1,1,1,1,1,1,0,0,0,0,0,0,0,0,0,0,0,0,0,0,0,0],"id":39,"left_children":[1,3,5,7,9,11,13,15,17,19,21,23,25,27,29,-1,-1,-1,-1,-1,-1,-1,-1,-1,-1,-1,-1,-1,-1,-1,-1],"loss_changes":[3.0561057E-1,4.0740905E0,1.7013161E0,8.446089E-1,9.439818E0,1.3455486E0,1.7727418E0,5.6768143E-1,1.3211639E0,5.5128984E0,4.51502E0,2.6202989E0,1.8007349E0,4.4467793E0,5.460223E0,0E0,0E0,0E0,0E0,0E0,0E0,0E0,0E0,0E0,0E0,0E0,0E0,0E0,0E0,0E0,0E0],"parents":[2147483647,0,0,1,1,2,2,3,3,4,4,5,5,6,6,7,7,8,8,9,9,10,10,11,11,12,12,13,13,14,14],"right_children":[2,4,6,8,10,12,14,16,18,20,22,24,26,28,30,-1,-1,-1,-1,-1,-1,-1,-1,-1,-1,-1,-1,-1,-1,-1,-1],"split_conditions":[1.477795E-1,8.875695E-2,4.5E-2,9.81394E-1,8.85E1,1.5935872E-1,1.0314672E-1,5.63131E-1,5.8968972E-2,1.8802533E-1,7.7075994E-1,2.0893118E-1,2.895308E-1,8.44406E-1,2.2012046E-1,-1.9016071E-3,2.101651E-3,-3.0099403E-3,-6.1798524E-2,2.4593981E-2,-6.646158E-2,-1.6135992E-2,-1.04409E-1,-1.4778864E-2,-2.4632495E-3,9.98275E-3,-2.2495235E-3,1.7888166E-2,-2.560574E-3,-3.5828758E-2,1.0561107E-3],"split_indices":[8,3,5,7,6,3,3,7,3,3,1,8,8,7,8,0,0,0,0,0,0,0,0,0,0,0,0,0,0,0,0],"split_type":[0,0,0,0,0,0,0,0,0,0,0,0,0,0,0,0,0,0,0,0,0,0,0,0,0,0,0,0,0,0,0],"sum_hessian":[4.6843E4,1.6513E4,3.033E4,1.437E4,2.143E3,1.5566E4,1.4764E4,1.4217E4,1.53E2,1.827E3,3.16E2,9.996E3,5.57E3,3.832E3,1.0932E4,9.392E3,4.825E3,1.02E2,5.1E1,1.766E3,6.1E1,2.51E2,6.5E1,1.925E3,8.071E3,1.471E3,4.099E3,1.846E3,1.986E3,3.73E2,1.0559E4],"tree_param":{"num_deleted":"0","num_feature":"9","num_nodes":"31","size_leaf_vector":"0"}},{"base_weights":[-7.1985046E-6,8.579098E-3,-6.087373E-4,5.7471678E-2,5.001928E-3,-1.5302067E-2,2.705936E-4,-4.4254796E-3,1.2629099E-1,-1.635681E-2,1.0304469E-2,-2.2825222E-2,9.355019E-2,5.5709146E-3,-2.531292E-3,-2.4109033E-1,1.1394325E-2,3.15109E-1,6.825067E-2,-2.300079E-2,6.344067E-2,5.4936074E-3,4.8864435E-2,-5.473256E-3,-7.136755E-2,1.0746124E-1,-5.9197925E-2,3.822445E-2,-7.6376396E-4,-6.731723E-2,-6.4379524E-4],"categories":[],"categories_nodes":[],"categories_segments":[],"categories_sizes":[],"default_left":[1,1,1,1,1,1,1,1,1,1,1,1,1,1,1,0,0,0,0,0,0,0,0,0,0,0,0,0,0,0,0],"id":40,"left_children":[1,3,5,7,9,11,13,15,17,19,21,23,25,27,29,-1,-1,-1,-1,-1,-1,-1,-1,-1,-1,-1,-1,-1,-1,-1,-1],"loss_changes":[2.4195401E-1,5.3612185E-1,5.656289E-1,8.9084035E-1,3.2396626E-1,2.0264869E0,6.1345994E-1,4.183301E-1,1.0634406E0,3.0312747E-1,4.2472738E-1,1.9478605E0,3.4634328E-1,2.9548764E0,3.3044171E0,0E0,0E0,0E0,0E0,0E0,0E0,0E0,0E0,0E0,0E0,0E0,0E0,0E0,0E0,0E0,0E0],"parents":[2147483647,0,0,1,1,2,2,3,3,4,4,5,5,6,6,7,7,8,8,9,9,10,10,11,11,12,12,13,13,14,14],"right_children":[2,4,6,8,10,12,14,16,18,20,22,24,26,28,30,-1,-1,-1,-1,-1,-1,-1,-1,-1,-1,-1,-1,-1,-1,-1,-1],"split_conditions":[2.7352883E-3,8.5E0,3.3915106E-2,1.3346E-3,9.6073186E-1,2.6722359E-2,5E-3,8.6607146E-1,1.0765478E-2,3.92E2,7.4078655E-1,2.0781573E-2,5E-3,2.9509846E-2,8.363521E-2,-7.23271E-2,3.4182975E-3,9.4532706E-2,2.0475201E-2,-6.9002374E-3,1.9032203E-2,1.6480823E-3,1.4659331E-2,-1.6419769E-3,-2.1410264E-2,3.223837E-2,-1.7759379E-2,1.1467336E-2,-2.291292E-4,-2.0195171E-2,-1.9313858E-4],"split_indices":[3,6,8,3,2,3,5,0,7,6,7,8,5,3,8,0,0,0,0,0,0,0,0,0,0,0,0,0,0,0,0],"split_type":[0,0,0,0,0,0,0,0,0,0,0,0,0,0,0,0,0,0,0,0,0,0,0,0,0,0,0,0,0,0,0],"sum_hessian":[4.6843E4,3.066E3,4.3777E4,2.08E2,2.858E3,2.471E3,4.1306E4,1.1E2,9.8E1,5.68E2,2.29E3,2.312E3,1.59E2,1.4284E4,2.7022E4,6E0,1.04E2,2.2E1,7.6E1,5.25E2,4.3E1,2.037E3,2.53E2,1.704E3,6.08E2,1.46E2,1.3E1,2.32E3,1.1964E4,7.64E2,2.6258E4],"tree_param":{"num_deleted":"0","num_feature":"9","num_nodes":"31","size_leaf_vector":"0"}},{"base_weights":[-3.8291178E-6,5.36716E-4,-9.09502E-3,-6.1908937E-3,1.5534096E-3,-3.1903163E-2,-2.0996293E-3,-3.290278E-2,-7.4532494E-4,3.318573E-3,-3.700762E-3,4.7843087E-2,-4.525952E-2,-8.4550776E-2,-1.7135071E-4,-5.555685E-2,4.943166E-3,-5.3517185E-3,1.8163612E-2,5.78921E-3,-6.8859044E-3,-3.6015075E-2,-1.3308978E-3,1.8144283E-2,9.769124E-2,-1.1782479E-2,-8.037773E-2,-2.1305889E-1,-3.807511E-2,3.253013E-1,-5.021966E-4],"categories":[],"categories_nodes":[],"categories_segments":[],"categories_sizes":[],"default_left":[1,1,1,1,1,1,1,1,1,1,1,1,1,1,1,0,0,0,0,0,0,0,0,0,0,0,0,0,0,0,0],"id":41,"left_children":[1,3,5,7,9,11,13,15,17,19,21,23,25,27,29,-1,-1,-1,-1,-1,-1,-1,-1,-1,-1,-1,-1,-1,-1,-1,-1],"loss_changes":[2.3020558E-1,3.0244344E-1,4.193949E-1,8.44379E-1,3.5626328E-1,6.59344E-1,3.200299E-1,8.430642E-1,4.201902E-1,7.249478E-1,7.3972E-1,1.299858E-1,6.209738E-1,2.6662272E-1,2.1208015E-1,0E0,0E0,0E0,0E0,0E0,0E0,0E0,0E0,0E0,0E0,0E0,0E0,0E0,0E0,0E0,0E0],"parents":[2147483647,0,0,1,1,2,2,3,3,4,4,5,5,6,6,7,7,8,8,9,9,10,10,11,11,12,12,13,13,14,14],"right_children":[2,4,6,8,10,12,14,16,18,20,22,24,26,28,30,-1,-1,-1,-1,-1,-1,-1,-1,-1,-1,-1,-1,-1,-1,-1,-1],"split_conditions":[4.293475E-1,1.05E1,8.7119E-2,8.2857144E-1,5.635553E-1,6.721555E-2,1.2117317E-1,2.2023965E-1,5.168185E-1,1.7121136E-1,5.582782E-2,9.650465E-1,4.45E1,5.56246E-1,1.2143198E-1,-1.6667055E-2,1.4829498E-3,-1.6055156E-3,5.4490836E-3,1.736763E-3,-2.0657715E-3,-1.0804523E-2,-3.9926937E-4,5.443285E-3,2.9307373E-2,-3.5347438E-3,-2.411332E-2,-6.391767E-2,-1.1422534E-2,9.7590394E-2,-1.5065899E-4],"split_indices":[4,6,3,0,8,8,8,8,7,3,3,1,6,7,8,0,0,0,0,0,0,0,0,0,0,0,0,0,0,0,0],"split_type":[0,0,0,0,0,0,0,0,0,0,0,0,0,0,0,0,0,0,0,0,0,0,0,0,0,0,0,0,0,0,0],"sum_hessian":[4.6843E4,4.4215E4,2.628E3,5.804E3,3.8411E4,6.16E2,2.012E3,9.82E2,4.822E3,2.8752E4,9.659E3,8.8E1,5.28E2,4.5E1,1.967E3,6.14E2,3.68E2,3.878E3,9.44E2,2.3148E4,5.604E3,6.59E2,9E3,5.6E1,3.2E1,2.71E2,2.57E2,1.1E1,3.4E1,1E0,1.966E3],"tree_param":{"num_deleted":"0","num_feature":"9","num_nodes":"31","size_leaf_vector":"0"}},{"base_weights":[-2.544313E-6,-1.3271718E-2,3.4749377E-4,-3.425424E-2,3.6606293E-2,4.2181253E-4,-8.8851996E-2,-9.249605E-2,-2.4056837E-2,1.2619884E-1,-1.651555E-2,2.9820605E-4,4.847471E-2,-2.0855856E-1,-1.8262247E-2,-1.3142624E-1,1.2477457E-2,3.1298253E-1,-2.5895866E-2,6.437268E-2,1.4935713E-1,-9.586821E-2,5.126471E-2,1.3902052E-1,2.5549225E-4,1.37558E-2,2.667781E-1,-2.621614E-1,-9.011118E-3,5.7339445E-2,-2.7329326E-2],"categories":[],"categories_nodes":[],"categories_segments":[],"categories_sizes":[],"default_left":[1,1,1,1,1,1,1,1,1,1,1,1,1,1,1,0,0,0,0,0,0,0,0,0,0,0,0,0,0,0,0],"id":42,"left_children":[1,3,5,7,9,11,13,15,17,19,21,23,25,27,29,-1,-1,-1,-1,-1,-1,-1,-1,-1,-1,-1,-1,-1,-1,-1,-1],"loss_changes":[2.175817E-1,1.2613201E0,3.0260065E-1,5.01415E-1,1.701162E0,2.708573E-1,3.172934E-1,5.1655626E-1,4.5623842E-1,1.8081307E-1,1.2150869E0,2.694972E-1,8.8310325E-1,1.4738595E-1,1.8704211E-2,0E0,0E0,0E0,0E0,0E0,0E0,0E0,0E0,0E0,0E0,0E0,0E0,0E0,0E0,0E0,0E0],"parents":[2147483647,0,0,1,1,2,2,3,3,4,4,5,5,6,6,7,7,8,8,9,9,10,10,11,11,12,12,13,13,14,14],"right_children":[2,4,6,8,10,12,14,16,18,20,22,24,26,28,30,-1,-1,-1,-1,-1,-1,-1,-1,-1,-1,-1,-1,-1,-1,-1,-1],"split_conditions":[2.8134108E-1,5.025E2,5.45E-1,3.5E-2,2.0756808E-1,3.403752E-1,1.1721765E-1,2.5206906E-1,1.9555774E-1,1.4089331E-1,7.026769E-2,2.8195447E-1,9.279715E-1,5.969802E-1,2.0465744E-1,-3.9427876E-2,3.7432371E-3,9.3894765E-2,-7.76876E-3,1.9311804E-2,4.480714E-2,-2.8760463E-2,1.5379414E-2,4.1706156E-2,7.664768E-5,4.12674E-3,8.003344E-2,-7.8648426E-2,-2.7033354E-3,1.7201833E-2,-8.198798E-3],"split_indices":[0,6,5,5,8,3,3,3,4,8,3,0,7,1,8,0,0,0,0,0,0,0,0,0,0,0,0,0,0,0,0],"split_type":[0,0,0,0,0,0,0,0,0,0,0,0,0,0,0,0,0,0,0,0,0,0,0,0,0,0,0,0,0,0,0],"sum_hessian":[4.6843E4,1.203E3,4.564E4,8.47E2,3.56E2,4.5603E4,3.7E1,1.25E2,7.22E2,1.32E2,2.24E2,4.5487E4,1.16E2,1.3E1,2.4E1,9.1E1,3.4E1,3E0,7.19E2,3.7E1,9.5E1,1.03E2,1.21E2,1.3E1,4.5474E4,1.01E2,1.5E1,1E1,3E0,2E0,2.2E1],"tree_param":{"num_deleted":"0","num_feature":"9","num_nodes":"31","size_leaf_vector":"0"}},{"base_weights":[1.5214383E-6,-1.8526226E-2,2.5368415E-4,-2.364357E-2,6.1684143E-2,-5.031503E-2,4.073262E-4,5.7022635E-2,-2.8660906E-2,1.1340297E-1,1.891577E-2,-1.2508476E-1,-2.7002843E-2,1.103897E-1,3.2132273E-4,-3.7173573E-2,1.3830225E-1,-2.640223E-1,-2.2562336E-2,5.387919E-2,2.9338545E-1,-4.8473164E-2,3.6584042E-2,1.8376067E-2,-2.317599E-1,4.1185548E-3,-9.78581E-2,2.132418E-1,-6.646658E-2,3.3374445E-3,-1.0406014E-3],"categories":[],"categories_nodes":[],"categories_segments":[],"categories_sizes":[],"default_left":[1,1,1,1,1,1,1,1,1,1,1,1,1,1,1,0,0,0,0,0,0,0,0,0,0,0,0,0,0,0,0],"id":43,"left_children":[1,3,5,7,9,11,13,15,17,19,21,23,25,27,29,-1,-1,-1,-1,-1,-1,-1,-1,-1,-1,-1,-1,-1,-1,-1,-1],"loss_changes":[2.1886018E-1,2.596403E-1,3.5909492E-1,2.4123418E-1,8.190824E-2,2.4064878E-1,4.3580082E-1,2.7310932E-1,7.9497826E-1,1.6631767E-1,2.7967557E-2,5.0928116E-1,2.385554E-1,6.690149E-1,1.8913153E-1,0E0,0E0,0E0,0E0,0E0,0E0,0E0,0E0,0E0,0E0,0E0,0E0,0E0,0E0,0E0,0E0],"parents":[2147483647,0,0,1,1,2,2,3,3,4,4,5,5,6,6,7,7,8,8,9,9,10,10,11,11,12,12,13,13,14,14],"right_children":[2,4,6,8,10,12,14,16,18,20,22,24,26,28,30,-1,-1,-1,-1,-1,-1,-1,-1,-1,-1,-1,-1,-1,-1,-1,-1],"split_conditions":[5.5E0,4.0965128E-1,2.7369857E-3,2.2006931E-3,1.8078431E-1,1.0939543E-1,3.2880157E-3,4.3137255E-3,9.803921E-3,7.490196E-2,2.2151057E-2,6.280452E-2,9.5E0,2.532213E-1,5.603869E-2,-1.1152072E-2,4.1490678E-2,-7.920669E-2,-6.768701E-3,1.6163757E-2,8.801564E-2,-1.454195E-2,1.0975213E-2,5.5128206E-3,-6.9527976E-2,1.2355665E-3,-2.9357431E-2,6.397254E-2,-1.9939974E-2,1.0012334E-3,-3.1218043E-4],"split_indices":[6,4,7,3,8,8,7,8,8,8,3,8,6,8,3,0,0,0,0,0,0,0,0,0,0,0,0,0,0,0,0],"split_type":[0,0,0,0,0,0,0,0,0,0,0,0,0,0,0,0,0,0,0,0,0,0,0,0,0,0,0,0,0,0,0],"sum_hessian":[4.6843E4,6.28E2,4.6215E4,5.91E2,3.7E1,1.39E2,4.6076E4,3.4E1,5.57E2,1.6E1,2.1E1,3.2E1,1.07E2,3.5E1,4.6041E4,1.6E1,1.8E1,1.3E1,5.44E2,1.3E1,3E0,4E0,1.7E1,1.4E1,1.8E1,7.5E1,3.2E1,2.2E1,1.3E1,1.4322E4,3.1719E4],"tree_param":{"num_deleted":"0","num_feature":"9","num_nodes":"31","size_leaf_vector":"0"}},{"base_weights":[1.0145773E-6,-5.2182516E-3,9.643339E-4,1.865562E-3,-4.2177558E-2,1.9387688E-2,6.888461E-5,-7.001832E-3,4.410697E-2,-6.443793E-2,2.6844718E-2,5.8547284E-2,-3.749294E-2,4.8831068E-2,-8.116954E-4,1.3910752E-4,-9.354446E-2,1.9081378E-1,2.5059905E-2,-2.722626E-2,-1.1232095E-1,1.2542342E-1,-4.932136E-3,-1.4124696E-2,1.6568373E-1,-5.0726533E-2,3.972304E-2,6.905633E-2,-2.0415775E-2,-6.204531E-2,4.1745036E-4],"categories":[],"categories_nodes":[],"categories_segments":[],"categories_sizes":[],"default_left":[1,1,1,1,1,1,1,1,1,1,1,1,1,1,1,0,0,0,0,0,0,0,0,0,0,0,0,0,0,0,0],"id":44,"left_children":[1,3,5,7,9,11,13,15,17,19,21,23,25,27,29,-1,-1,-1,-1,-1,-1,-1,-1,-1,-1,-1,-1,-1,-1,-1,-1],"loss_changes":[2.3552823E-1,1.9110506E0,6.523961E-1,2.2949326E0,1.8055363E0,4.0850606E0,1.6194413E0,3.1295433E0,2.9655957E0,1.5791872E0,8.996521E-1,8.457737E0,7.663549E-1,9.383683E-1,2.7882948E0,0E0,0E0,0E0,0E0,0E0,0E0,0E0,0E0,0E0,0E0,0E0,0E0,0E0,0E0,0E0,0E0],"parents":[2147483647,0,0,1,1,2,2,3,3,4,4,5,5,6,6,7,7,8,8,9,9,10,10,11,11,12,12,13,13,14,14],"right_children":[2,4,6,8,10,12,14,16,18,20,22,24,26,28,30,-1,-1,-1,-1,-1,-1,-1,-1,-1,-1,-1,-1,-1,-1,-1,-1],"split_conditions":[1.9476475E-2,8.7321386E-2,2.6466794E-2,5.4048344E-2,2.672736E-1,5E-3,6.0519762E-2,8.173842E-3,7.5E0,1.03336774E-1,2.8133667E-1,7.244009E-2,1.8557812E-1,5E-3,8.2066886E-2,4.173226E-5,-2.806334E-2,5.7244137E-2,7.5179716E-3,-8.167879E-3,-3.3696286E-2,3.7627026E-2,-1.4796408E-3,-4.237409E-3,4.970512E-2,-1.5217961E-2,1.1916912E-2,2.07169E-2,-6.124733E-3,-1.8613594E-2,1.252351E-4],"split_indices":[3,8,3,8,8,5,8,3,6,8,8,8,8,5,8,0,0,0,0,0,0,0,0,0,0,0,0,0,0,0,0],"split_type":[0,0,0,0,0,0,0,0,0,0,0,0,0,0,0,0,0,0,0,0,0,0,0,0,0,0,0,0,0,0,0],"sum_hessian":[4.6843E4,7.298E3,3.9545E4,6.125E3,1.173E3,1.832E3,3.7713E4,5.063E3,1.062E3,8.87E2,2.86E2,1.085E3,7.47E2,6.68E2,3.7045E4,4.678E3,3.85E2,1.21E2,9.41E2,5E2,3.87E2,6.9E1,2.17E2,6.47E2,4.38E2,6.38E2,1.09E2,5.17E2,1.51E2,7.28E2,3.6317E4],"tree_param":{"num_deleted":"0","num_feature":"9","num_nodes":"31","size_leaf_vector":"0"}},{"base_weights":[2.1900348E-6,-9.0499995E-3,6.270844E-4,-1.4264883E-1,-7.7542313E-3,3.6313024E-3,-1.105617E-3,-2.0281976E-1,4.065236E-2,-1.4303498E-3,-2.7533991E-2,9.6973535E-3,-2.2332434E-2,-2.0564448E-2,1.1491424E-3,-8.481133E-2,-3.6385292E-1,1.2024909E-1,-1.3209188E-1,-8.47575E-3,3.1463463E-2,-5.9762005E-2,2.1686953E-2,2.7753115E-3,4.2000014E-2,-3.8959465E-3,-1.1321095E-1,7.263161E-2,-5.7968613E-2,3.0248296E-1,9.796307E-4],"categories":[],"categories_nodes":[],"categories_segments":[],"categories_sizes":[],"default_left":[1,1,1,1,1,1,1,1,1,1,1,1,1,1,1,0,0,0,0,0,0,0,0,0,0,0,0,0,0,0,0],"id":45,"left_children":[1,3,5,7,9,11,13,15,17,19,21,23,25,27,29,-1,-1,-1,-1,-1,-1,-1,-1,-1,-1,-1,-1,-1,-1,-1,-1],"loss_changes":[2.6498634E-1,5.2256083E-1,2.2810519E-1,3.2809782E-1,3.748399E-1,2.524742E0,1.2193973E0,3.87213E-1,1.2588294E-1,5.2680284E-1,1.152945E0,2.9053464E0,5.0863175E0,1.0064577E1,1.271943E0,0E0,0E0,0E0,0E0,0E0,0E0,0E0,0E0,0E0,0E0,0E0,0E0,0E0,0E0,0E0,0E0],"parents":[2147483647,0,0,1,1,2,2,3,3,4,4,5,5,6,6,7,7,8,8,9,9,10,10,11,11,12,12,13,13,14,14],"right_children":[2,4,6,8,10,12,14,16,18,20,22,24,26,28,30,-1,-1,-1,-1,-1,-1,-1,-1,-1,-1,-1,-1,-1,-1,-1,-1],"split_conditions":[6.277548E-2,8.144133E-1,1.611067E-1,1.4681372E-1,3.1557178E-1,1.195E2,2.0720069E-1,8.077906E-2,7.99195E-1,1.0010086E-1,2.7803922E-1,9.1072515E-2,9.962046E-1,6.972413E-2,2.0742244E-1,-2.54434E-2,-1.0915588E-1,3.6074728E-2,-3.9627567E-2,-2.542725E-3,9.439039E-3,-1.7928602E-2,6.506086E-3,8.325935E-4,1.2600005E-2,-1.168784E-3,-3.3963285E-2,2.1789484E-2,-1.7390585E-2,9.074489E-2,2.9388923E-4],"split_indices":[7,1,8,8,4,6,8,8,1,3,8,3,2,3,8,0,0,0,0,0,0,0,0,0,0,0,0,0,0,0,0],"split_type":[0,0,0,0,0,0,0,0,0,0,0,0,0,0,0,0,0,0,0,0,0,0,0,0,0,0,0,0,0,0,0],"sum_hessian":[4.6843E4,3.024E3,4.3819E4,2.8E1,2.996E3,1.6028E4,2.7791E4,2.1E1,7E0,2.271E3,7.25E2,1.2993E4,3.035E3,2.885E3,2.4906E4,1.3E1,8E0,5E0,2E0,1.871E3,4E2,4.38E2,2.87E2,1.0701E4,2.292E3,2.524E3,5.11E2,8.26E2,2.059E3,1.3E1,2.4893E4],"tree_param":{"num_deleted":"0","num_feature":"9","num_nodes":"31","size_leaf_vector":"0"}},{"base_weights":[6.012475E-8,2.0826494E-3,-2.2185098E-3,-2.0767031E-2,3.675733E-3,-1.8841222E-2,2.9669298E-4,4.413589E-3,-4.2525925E-2,1.591321E-2,-7.755159E-5,-5.408728E-2,3.1690295E-3,1.9252187E-3,-1.8408837E-2,-9.233073E-2,1.745598E-2,6.597965E-2,-4.7435913E-2,2.6114358E-2,-1.0227212E-2,-2.360089E-2,1.0891947E-3,4.4591423E-2,-9.789017E-2,-4.4713553E-2,1.0535903E-2,6.745688E-3,-6.376065E-3,-6.9044515E-2,1.1329499E-2],"categories":[],"categories_nodes":[],"categories_segments":[],"categories_sizes":[],"default_left":[1,1,1,1,1,1,1,1,1,1,1,1,1,1,1,0,0,0,0,0,0,0,0,0,0,0,0,0,0,0,0],"id":46,"left_children":[1,3,5,7,9,11,13,15,17,19,21,23,25,27,29,-1,-1,-1,-1,-1,-1,-1,-1,-1,-1,-1,-1,-1,-1,-1,-1],"loss_changes":[2.1644121E-1,8.796446E-1,9.483285E-1,8.6313397E-1,1.0375307E0,2.3127556E0,6.002064E-1,9.2397094E-1,4.5331287E-1,1.4141103E0,4.745081E-1,4.95785E0,6.4811087E-1,7.2533447E-1,2.3769674E0,0E0,0E0,0E0,0E0,0E0,0E0,0E0,0E0,0E0,0E0,0E0,0E0,0E0,0E0,0E0,0E0],"parents":[2147483647,0,0,1,1,2,2,3,3,4,4,5,5,6,6,7,7,8,8,9,9,10,10,11,11,12,12,13,13,14,14],"right_children":[2,4,6,8,10,12,14,16,18,20,22,24,26,28,30,-1,-1,-1,-1,-1,-1,-1,-1,-1,-1,-1,-1,-1,-1,-1,-1],"split_conditions":[9.168587E-1,3.3682E-1,6.9126725E-1,3.1504023E-1,6.1211705E-1,1.9064547E-1,1.005E2,3.1181204E-1,1.28494E-1,1.6498575E-1,2.15E1,8.2647055E-2,6.3855395E-2,2.9663867E-1,2.9068512E-1,-2.769922E-2,5.2367942E-3,1.9793896E-2,-1.4230775E-2,7.834308E-3,-3.0681638E-3,-7.080267E-3,3.2675843E-4,1.3377427E-2,-2.9367052E-2,-1.3414066E-2,3.1607712E-3,2.0237064E-3,-1.9128196E-3,-2.0713355E-2,3.3988499E-3],"split_indices":[1,7,0,4,7,8,6,4,7,3,6,8,3,8,8,0,0,0,0,0,0,0,0,0,0,0,0,0,0,0,0],"split_type":[0,0,0,0,0,0,0,0,0,0,0,0,0,0,0,0,0,0,0,0,0,0,0,0,0,0,0,0,0,0,0],"sum_hessian":[4.6843E4,2.4162E4,2.2681E4,1.574E3,2.2588E4,2.98E3,1.9701E4,7.3E2,8.44E2,5.301E3,1.7287E4,1.145E3,1.835E3,1.8124E4,1.577E3,8.6E1,6.44E2,3.6E1,8.08E2,3.813E3,1.488E3,8.16E2,1.6471E4,3.52E2,7.93E2,2.44E2,1.591E3,1.1466E4,6.658E3,5.83E2,9.94E2],"tree_param":{"num_deleted":"0","num_feature":"9","num_nodes":"31","size_leaf_vector":"0"}},{"base_weights":[-1.2868429E-6,-6.645121E-3,7.8015425E-4,2.5667318E-3,-1.4761387E-2,-3.21102E-3,2.3264757E-3,1.4217666E-2,-3.9854378E-2,-4.608843E-2,4.8126043E-3,-1.7892282E-2,2.9571743E-3,9.148324E-3,-7.6671934E-4,9.309447E-3,1.3451076E-1,8.500227E-2,-5.2749086E-2,-1.843898E-2,-8.949053E-2,-2.0312304E-2,1.9154537E-2,1.6600823E-2,-2.6873058E-2,-2.9288635E-2,7.663199E-3,-6.7626243E-3,2.9690327E-2,8.916457E-3,-5.5671455E-3],"categories":[],"categories_nodes":[],"categories_segments":[],"categories_sizes":[],"default_left":[1,1,1,1,1,1,1,1,1,1,1,1,1,1,1,0,0,0,0,0,0,0,0,0,0,0,0,0,0,0,0],"id":47,"left_children":[1,3,5,7,9,11,13,15,17,19,21,23,25,27,29,-1,-1,-1,-1,-1,-1,-1,-1,-1,-1,-1,-1,-1,-1,-1,-1],"loss_changes":[2.4320823E-1,3.6863357E-1,2.5869167E-1,1.142274E0,1.6074069E0,1.0600213E0,6.374985E-1,1.069188E0,8.062588E-1,1.2079945E0,5.819774E-1,1.0731963E0,1.2510962E0,3.0806937E0,9.6629953E-1,0E0,0E0,0E0,0E0,0E0,0E0,0E0,0E0,0E0,0E0,0E0,0E0,0E0,0E0,0E0,0E0],"parents":[2147483647,0,0,1,1,2,2,3,3,4,4,5,5,6,6,7,7,8,8,9,9,10,10,11,11,12,12,13,13,14,14],"right_children":[2,4,6,8,10,12,14,16,18,20,22,24,26,28,30,-1,-1,-1,-1,-1,-1,-1,-1,-1,-1,-1,-1,-1,-1,-1,-1],"split_conditions":[9.5E0,5.3530965E-2,4.8187962E-1,2.277311E-1,1.8718487E-1,9.65E1,5E-3,1.6088936E-1,6.279975E-3,3.276689E-1,3.2345676E-1,8.8338E-2,3.3710763E-2,9.645629E-2,6.796888E-2,2.7928343E-3,4.0353227E-2,2.5500683E-2,-1.5824726E-2,-5.5316943E-3,-2.6847161E-2,-6.0936916E-3,5.7463613E-3,4.980247E-3,-8.0619175E-3,-8.786591E-3,2.2989598E-3,-2.0287873E-3,8.907098E-3,2.6749372E-3,-1.6701437E-3],"split_indices":[6,3,0,8,8,6,5,8,7,4,4,8,3,3,3,0,0,0,0,0,0,0,0,0,0,0,0,0,0,0,0],"split_type":[0,0,0,0,0,0,0,0,0,0,0,0,0,0,0,0,0,0,0,0,0,0,0,0,0,0,0,0,0,0,0],"sum_hessian":[4.6843E4,4.929E3,4.1914E4,2.309E3,2.62E3,1.1704E4,3.021E4,1.812E3,4.97E2,1.007E3,1.613E3,3.462E3,8.242E3,9.424E3,2.0786E4,1.742E3,7E1,4.6E1,4.51E2,6.16E2,3.91E2,5.86E2,1.027E3,7.15E2,2.747E3,1.049E3,7.193E3,5.311E3,4.113E3,6.889E3,1.3897E4],"tree_param":{"num_deleted":"0","num_feature":"9","num_nodes":"31","size_leaf_vector":"0"}},{"base_weights":[-5.084164E-7,-5.2449144E-3,9.674509E-4,-2.9558869E-5,-2.71427E-2,8.517177E-3,-2.9565644E-4,-6.8657175E-3,4.152907E-2,-3.9742693E-2,2.1395693E-2,2.3383038E-2,-5.3628986E-3,7.125391E-2,-7.7613146E-4,-3.0427484E-3,-1.1302271E-1,4.7115207E-2,-1.6653793E-1,-9.956035E-2,-1.9851223E-2,7.459999E-2,-1.1532487E-2,4.2731486E-2,-4.1797116E-2,-3.518964E-2,9.51511E-3,1.0184809E-1,1.6176393E-3,-3.5714682E-2,-2.2780427E-4],"categories":[],"categories_nodes":[],"categories_segments":[],"categories_sizes":[],"default_left":[1,1,1,1,1,1,1,1,1,1,1,1,1,1,1,0,0,0,0,0,0,0,0,0,0,0,0,0,0,0,0],"id":48,"left_children":[1,3,5,7,9,11,13,15,17,19,21,23,25,27,29,-1,-1,-1,-1,-1,-1,-1,-1,-1,-1,-1,-1,-1,-1,-1,-1],"loss_changes":[2.3780264E-1,8.3357966E-1,3.771177E-1,1.6753469E0,8.595133E-1,1.1696564E0,1.1647403E0,2.054804E0,9.760349E-1,1.3247187E0,5.0891733E-1,3.4535122E0,1.3014466E0,4.8132014E-1,6.44727E-1,0E0,0E0,0E0,0E0,0E0,0E0,0E0,0E0,0E0,0E0,0E0,0E0,0E0,0E0,0E0,0E0],"parents":[2147483647,0,0,1,1,2,2,3,3,4,4,5,5,6,6,7,7,8,8,9,9,10,10,11,11,12,12,13,13,14,14],"right_children":[2,4,6,8,10,12,14,16,18,20,22,24,26,28,30,-1,-1,-1,-1,-1,-1,-1,-1,-1,-1,-1,-1,-1,-1,-1,-1],"split_conditions":[1.9476475E-2,8.191517E-2,4.7581695E-2,5.4048344E-2,2.6686275E-1,5E-3,6.265597E-2,2.6205644E-2,1.8864369E-2,1.2379196E-1,2.8933707E-1,2.2889464E-1,1.0824002E-1,2.25E1,8.253825E-2,-9.128246E-4,-3.3906814E-2,1.4134563E-2,-4.996138E-2,-2.9868105E-2,-5.955367E-3,2.2379998E-2,-3.4597463E-3,1.2819447E-2,-1.2539135E-2,-1.05568925E-2,2.8545333E-3,3.0554427E-2,4.8529182E-4,-1.0714405E-2,-6.834128E-5],"split_indices":[3,8,3,8,8,5,8,8,3,7,8,8,8,6,8,0,0,0,0,0,0,0,0,0,0,0,0,0,0,0,0],"split_type":[0,0,0,0,0,0,0,0,0,0,0,0,0,0,0,0,0,0,0,0,0,0,0,0,0,0,0,0,0,0,0],"sum_hessian":[4.6843E4,7.298E3,3.9545E4,5.895E3,1.403E3,5.667E3,3.3878E4,5.063E3,8.32E2,1.114E3,2.89E2,2.736E3,2.931E3,2.25E2,3.3653E4,4.888E3,1.75E2,8.11E2,2.1E1,2.77E2,8.37E2,1.1E2,1.79E2,2.11E3,6.26E2,9.75E2,1.956E3,1.56E2,6.9E1,5.19E2,3.3134E4],"tree_param":{"num_deleted":"0","num_feature":"9","num_nodes":"31","size_leaf_vector":"0"}},{"base_weights":[-1.9511458E-6,1.7905695E-3,-2.877837E-3,-1.7584397E-2,2.8303815E-3,-8.624424E-3,6.196004E-3,-3.689207E-2,3.248002E-3,3.0713588E-1,2.7302545E-3,-6.7054005E-3,-1.02304965E-1,7.335494E-2,1.0495079E-4,9.95156E-3,-5.8801595E-2,2.413481E-2,-7.081387E-2,5.119114E-1,4.093322E-2,9.600638E-3,-5.549501E-6,1.4914576E-3,-2.2006597E-2,-1.308448E-1,2.9836515E-1,-1.2377169E-1,1.01982184E-1,-2.0178347E-3,6.203572E-2],"categories":[],"categories_nodes":[],"categories_segments":[],"categories_sizes":[],"default_left":[1,1,1,1,1,1,1,1,1,1,1,1,1,1,1,0,0,0,0,0,0,0,0,0,0,0,0,0,0,0,0],"id":49,"left_children":[1,3,5,7,9,11,13,15,17,19,21,23,25,27,29,-1,-1,-1,-1,-1,-1,-1,-1,-1,-1,-1,-1,-1,-1,-1,-1],"loss_changes":[2.4148995E-1,5.814324E-1,9.3796074E-1,5.913907E-1,8.33683E-1,1.9791783E0,2.853246E0,7.8366864E-1,1.0969257E0,4.6965182E-1,5.146539E-1,1.3537097E0,2.566188E0,3.2856743E0,8.4098005E-1,0E0,0E0,0E0,0E0,0E0,0E0,0E0,0E0,0E0,0E0,0E0,0E0,0E0,0E0,0E0,0E0],"parents":[2147483647,0,0,1,1,2,2,3,3,4,4,5,5,6,6,7,7,8,8,9,9,10,10,11,11,12,12,13,13,14,14],"right_children":[2,4,6,8,10,12,14,16,18,20,22,24,26,28,30,-1,-1,-1,-1,-1,-1,-1,-1,-1,-1,-1,-1,-1,-1,-1,-1],"split_conditions":[9.8871195E-1,2.6678652E-1,